Language model created by QuickLM on Fri Jun 29 17:50:42 EDT 2018
Copyright (c) 1996-2010 Carnegie Mellon University and Alexander I. Rudnicky

The model is in standard ARPA format, designed by Doug Paul while he was at MITRE.

The code that was used to produce this language model is available in Open Source.
Please visit http://www.speech.cs.cmu.edu/tools/ for more information

The (fixed) discount mass is 0.5. The backoffs are computed using the ratio method.
This model based on a corpus of 2000 sentences and 283 words

\data\
ngram 1=283
ngram 2=5337
ngram 3=6935

\1-grams:
-1.0420 </s> -0.3010
-1.0420 <s> -0.1349
-2.9813 AAMEREKY -0.2501
-3.1389 AASINGAR -0.2503
-3.0643 AAZAABYN -0.2485
-2.9628 AGAR -0.2494
-3.1389 AM -0.2554
-2.9813 AMAANAY -0.2486
-2.8806 AMRRO -0.2451
-3.0643 ANDAAMAANY -0.2498
-3.0877 ANJAAMY -0.2487
-3.0006 AW -0.2504
-3.6440 BA -0.2968
-3.0643 BAA -0.2494
-3.0006 BAAPYRIM -0.2514
-3.1126 BAASH -0.2494
-2.8245 BAAWK -0.2430
-3.0006 BAAXAKA -0.2511
-2.8517 BAAXCHAKAY -0.2473
-2.9280 BAAYAKY -0.2455
-3.1389 BAFYRRO -0.2552
-3.0208 BAKAARDENET -0.2467
-3.0420 BALLAAM -0.2484
-3.0208 BASAR -0.2487
-2.9628 BASHA -0.2525
-3.0208 BASWWDA -0.2488
-2.6996 BAYAANY -0.2391
-3.1669 BAZAWYDAA -0.2539
-3.1669 BICHWWKY -0.2538
-2.9813 BICHYNA -0.2516
-3.1126 BIDAWA -0.2518
-3.0006 BIDWEYN -0.2491
-2.9628 BIGRET -0.2453
-3.1389 BIKAAT -0.2547
-3.0208 BIKAYN -0.2539
-2.6898 BILLIND -0.2399
-3.0006 BINARRATY -0.2500
-2.7989 BINWWSA -0.2475
-2.8959 BIPIRSIN -0.2435
-3.0877 BIRAAT -0.2500
-3.1669 BIXWENAWA -0.2474
-3.0006 BIXWENYN -0.2462
-3.0208 BIZHY -0.2503
-2.9628 BO -0.2482
-3.1969 BOYAAXCHY -0.2534
-2.7989 BWW -0.2438
-2.6803 BYNY -0.2361
-2.9280 BYR -0.2461
-3.0006 CH -0.2502
-3.0877 CHAARADAKAAT -0.2517
-3.0877 CHAAWIM -0.2514
-2.6440 CHAND -0.2347
-2.9451 CHAPDAA -0.2524
-3.0006 CHIRAAYA -0.2523
-2.8379 CHON -0.2443
-2.9628 CHWAAR -0.2494
-2.9813 CHWNKA -0.2468
-2.7302 CHY -0.2358
-3.1126 CHYYA -0.2516
-2.9628 DAA -0.2477
-3.1389 DAAHAATWWYN -0.2550
-3.0208 DAANAA -0.2491
-3.0208 DAAPYRA -0.2496
-2.7410 DAAR -0.2368
-3.1669 DAARISTAANA -0.2546
-3.1389 DAARTAASH -0.2519
-3.0420 DAAWAAY -0.2487
-2.4857 DAAYK -0.2239
-3.0420 DABIRZHENET -0.2503
-3.0006 DACHIMA -0.2479
-2.7410 DADAATE -0.2384
-3.0208 DAFROSHET -0.2497
-2.7198 DAGRIM -0.2400
-3.1669 DAHAATAWA -0.2508
-3.1126 DAKAA -0.2541
-2.7198 DAKAN -0.2420
-3.0877 DAKAWET -0.2537
-3.0877 DAM -0.2511
-2.9628 DANORRIM -0.2464
-3.0006 DAPARRIMAWA -0.2508
-3.0006 DARAWA -0.2474
-3.1126 DARBAAZY -0.2507
-3.0643 DARCHWWY -0.2496
-3.0208 DARGAA -0.2519
-3.0208 DARROM -0.2516
-3.0208 DARRWENIN -0.2488
-3.1669 DASHOM -0.2528
-3.1669 DASRAWE -0.2539
-3.1969 DASTY -0.2517
-3.0208 DAYPAAREZIM -0.2526
-2.9280 DAZHYN -0.2485
-2.9628 DEM -0.2442
-3.1969 DIDAAN -0.2543
-3.0208 DILGYR -0.2471
-3.1669 DILL -0.2529
-2.9117 DIRAXT -0.2461
-2.9117 DIRWST -0.2436
-2.9628 DOZYYAWA -0.2501
-2.6528 DWKAAN -0.2389
-2.7748 DWWAM -0.2427
-2.9628 DWWRA -0.2469
-2.9451 DYWAAR -0.2473
-2.7632 FERDAKAAT -0.2430
-2.9117 FERIMAAN -0.2517
-3.0208 GAAZINDAY -0.2472
-3.0006 GAMA -0.2509
-2.8659 GARRAAM -0.2424
-2.6270 GASHA -0.2416
-3.0208 GAYAANDIBWW -0.2493
-2.8806 GHAARDAAN -0.2444
-2.6898 GIRT -0.2366
-3.0877 GIZH -0.2493
-3.0006 GOSHT -0.2485
-3.0006 GOSHTFROSH -0.2508
-2.7095 GWEBIGRA -0.2412
-3.2291 GWLL -0.2545
-3.1389 GWNDEK -0.2518
-2.7410 GWTY -0.2434
-3.1389 GYAA -0.2526
-3.1389 HABWW -0.2504
-3.0420 HAFTA -0.2502
-2.9628 HALLA -0.2486
-3.1126 HALLDASTIM -0.2533
-3.0643 HALLPARRYN -0.2514
-3.1389 HALLYKIRD -0.2528
-3.0420 HAMWWMAAN -0.2491
-3.1389 HAR -0.2522
-3.0208 HARDWW -0.2487
-2.9451 HASHT -0.2481
-3.3430 HAWLER -0.2547
-2.6440 HAAWRRE -0.2375
-3.1669 HAYA -0.2532
-2.6803 HHAZMAAN -0.2366
-2.9451 HOSHA -0.2492
-3.1126 HY -0.2514
-3.0006 HYCH -0.2520
-2.9451 HYWAAY -0.2493
-3.0420 JEYA -0.2514
-2.6528 JWAAN -0.2401
-3.2638 JWTYAAR -0.2562
-3.1389 KA -0.2510
-3.0877 KAAM -0.2494
-3.0877 KAANY -0.2516
-2.9813 KAAT -0.2496
-2.8379 KAATE -0.2426
-3.0420 KALWPALY -0.2505
-3.1669 KAS -0.2530
-2.6709 KIRD -0.2409
-3.0643 KOMPYWTAR -0.2525
-3.0006 KWRDISTAAN -0.2511
-3.0208 KWRRE -0.2519
-2.9451 KWRSY -0.2469
-3.1126 LA -0.2509
-3.1669 LAAY -0.2530
-3.0208 LAGALL -0.2478
-3.0643 LATAMANY -0.2490
-3.1389 LAXOBAAYY -0.2519
-3.3888 LE -0.2944
-3.2638 LEBGRIN -0.2513
-3.0877 LEBWRDIN -0.2514
-3.0643 LEDAXWRRET -0.2515
-2.8245 LEMAAN -0.2450
-2.7302 MAALLY -0.2421
-2.5577 MAAMOSTAA -0.2321
-3.1969 MAAYAWA -0.2546
-2.9628 MABAWA -0.2466
-3.0208 MALLBANDY -0.2485
-3.0208 MAQAST -0.2493
-3.1126 MAYDAANY -0.2489
-3.0006 MIN -0.2495
-2.7198 MINDAALL -0.2408
-3.0208 MIROV -0.2510
-3.0877 NAABYNAAY -0.2520
-2.8659 NAADAM -0.2418
-2.6354 NAAN -0.2360
-2.5301 NAAW -0.2337
-2.9280 NABWW -0.2454
-2.9280 NACHIN -0.2423
-3.0643 NAMAAM -0.2489
-3.0420 NAWAY -0.2532
-2.9813 NAXOSH -0.2496
-3.1389 NIMWNAY -0.2509
-3.1126 NIZHYAAR -0.2508
-2.9117 NIZYK -0.2482
-2.9451 NWEMAAN -0.2498
-3.0006 NWSYN -0.2508
-3.0420 OTOMBELAKA -0.2489
-3.3016 PAAYTAXTY -0.2557
-3.1969 PANJAA -0.2572
-3.0208 PANJARA -0.2499
-2.9813 PARY -0.2504
-2.9451 PENJ -0.2464
-3.0420 PENWWS -0.2502
-3.0420 PEXOSHA -0.2488
-2.8806 PEY -0.2466
-3.0643 PIRSYAAR -0.2512
-2.7519 PIZYSHK -0.2402
-3.0420 POLAKAT -0.2505
-2.9117 POLY -0.2465
-3.2291 PRR -0.2537
-2.6354 PSHWWDAA -0.2333
-3.1669 PYAAWEKY -0.2506
-3.0208 PYROZBE -0.2502
-3.1669 QARAAGHY -0.2510
-2.6709 QWTAABXAANA -0.2398
-2.8959 QWTAABY -0.2438
-3.2638 RRAWISHTEKY -0.2558
-2.9451 RRAAMAAN -0.2479
-2.8806 RRAAST -0.2439
-3.3016 RRAAYALLY -0.2512
-2.6528 RRANG -0.2399
-3.1126 RRAWISHTY -0.2518
-3.0208 RREGADAA -0.2493
-2.8517 RREHHAAN -0.2435
-2.9451 RREZ -0.2504
-2.4622 RROZH -0.2242
-2.6709 RRWWNAAKY -0.2389
-3.0208 SAADA -0.2466
-3.3016 SAAKAARA -0.2513
-2.4565 SAALL -0.2257
-2.9280 SAAM -0.2455
-3.0208 SARATAAY -0.2500
-3.0643 SARAWA -0.2469
-3.1126 SARDAAN -0.2498
-3.0877 SARTAASH -0.2510
-3.0877 SAWZ -0.2504
-2.8806 SAYRAAN -0.2453
-3.1126 SHA -0.2516
-2.6354 SHAARAKA -0.2323
-3.1126 SHAAXY -0.2505
-3.0208 SHAMMAYA -0.2500
-3.1969 SHAQAAMAKA -0.2512
-2.8245 SHEWAAZY -0.2402
-3.0208 SHWENY -0.2536
-2.8517 SHWFER -0.2489
-3.1389 SHYRYNA -0.2499
-3.1669 SILLAAW -0.2549
-3.0208 SIPY -0.2529
-3.4399 SWPAASY -0.2560
-2.7632 SWWDA -0.2396
-3.0420 TAMAASHAAM -0.2512
-2.9280 TANDIRWSTY -0.2483
-3.1669 TANGAANA -0.2511
-2.9451 TANYAA -0.2487
-3.0208 TO -0.2521
-3.1126 TOPAANE -0.2498
-3.0420 TWAANY -0.2471
-3.2291 TWND -0.2533
-3.0877 TYAA -0.2486
-2.9628 WAAYA -0.2484
-3.0877 WAKW -0.2522
-3.1669 WALLAAMY -0.2492
-3.0420 WARBIGRIN -0.2485
-3.1126 WENAKAAN -0.2489
-2.9628 WLLAATAKAY -0.2472
-2.5301 WRYAA -0.2323
-2.7410 WSHA -0.2413
-3.2638 XAAKEKY -0.2546
-2.6187 XAAWEN -0.2353
-2.6709 XEZAAN -0.2397
-3.0643 XIZMATY -0.2540
-3.0006 XOBAAYY -0.2503
-3.5649 XOM -0.2981
-2.7748 XOMAAN -0.2403
-3.0006 XORRAAGIRTIN -0.2484
-2.6187 XOSHDAWE -0.2355
-3.0877 XOY -0.2527
-3.0208 XWAARAWA -0.2520
-2.2861 XWENDIN -0.2088
-2.9628 XWSHK -0.2472
-2.9628 YAARMATY -0.2500
-3.2291 YAARY -0.2555
-2.9280 YAASAA -0.2505
-2.9813 YAKAMIM -0.2497
-3.1126 YAKDANG -0.2514
-3.1389 ZARD -0.2515
-3.1126 ZAWY -0.2542
-2.9451 ZHYAAN -0.2485
-3.1969 ZIMAANY -0.2533
-2.6354 ZOR -0.2420
-3.0877 ZWW -0.2519
-3.0420 ZYAANYAAN -0.2486
-2.6618 ZYRAK -0.2359

\2-grams:
-2.8239 <s> AAMEREKY -0.1946
-2.8239 <s> AASINGAR -0.2109
-2.9031 <s> AAZAABYN -0.2398
-2.6021 <s> AGAR -0.1880
-3.1249 <s> AM -0.2583
-3.1249 <s> AMAANAY -0.2511
-2.6990 <s> AMRRO -0.2366
-2.9031 <s> ANDAAMAANY -0.2398
-3.0000 <s> ANJAAMY -0.2499
-2.7570 <s> AW -0.2139
-2.9031 <s> BA 0.0000
-2.8239 <s> BAA -0.2264
-2.6478 <s> BAAPYRIM -0.2016
-2.8239 <s> BAASH -0.2009
-2.6990 <s> BAAWK -0.2449
-2.7570 <s> BAAXAKA -0.2139
-2.8239 <s> BAAXCHAKAY -0.1619
-2.7570 <s> BAAYAKY -0.2285
-2.8239 <s> BAFYRRO -0.2109
-2.8239 <s> BAKAARDENET -0.2341
-2.6021 <s> BALLAAM -0.1761
-3.0000 <s> BASAR -0.2576
-2.8239 <s> BASHA -0.2430
-3.0000 <s> BASWWDA -0.2576
-2.4881 <s> BAYAANY -0.2258
-2.7570 <s> BAZAWYDAA -0.1856
-3.1249 <s> BICHWWKY -0.2553
-3.1249 <s> BICHYNA -0.2717
-2.7570 <s> BIDAWA -0.2009
-3.0000 <s> BIDWEYN -0.2596
-2.7570 <s> BIGRET -0.2326
-2.8239 <s> BIKAAT -0.2109
-3.0000 <s> BIKAYN -0.2576
-2.4559 <s> BILLIND -0.2276
-2.6990 <s> BINARRATY -0.2139
-2.5607 <s> BINWWSA -0.2194
-2.6990 <s> BIPIRSIN -0.2249
-2.9031 <s> BIRAAT -0.2361
-2.9031 <s> BIXWENAWA -0.2218
-3.0000 <s> BIXWENYN -0.2596
-2.8239 <s> BIZHY -0.2093
-2.8239 <s> BO -0.2430
-3.6021 <s> BOYAAXCHY -0.2852
-2.5229 <s> BWW -0.2041
-2.5607 <s> BYNY -0.2349
-2.6478 <s> BYR -0.2185
-2.7570 <s> CH -0.2258
-2.8239 <s> CHAARADAKAAT -0.2218
-3.0000 <s> CHAAWIM -0.2499
-2.3716 <s> CHAND -0.2095
-2.9031 <s> CHAPDAA -0.2553
-2.6478 <s> CHIRAAYA -0.2016
-2.7570 <s> CHON -0.2430
-2.8239 <s> CHWAAR -0.2326
-2.6990 <s> CHWNKA -0.1946
-2.6478 <s> CHY -0.2445
-3.0000 <s> CHYYA -0.2467
-2.7570 <s> DAA -0.2326
-2.8239 <s> DAAHAATWWYN -0.2109
-2.6990 <s> DAANAA -0.2093
-2.8239 <s> DAAPYRA -0.2341
-2.4260 <s> DAAR -0.2109
-3.3010 <s> DAARISTAANA -0.2553
-2.8239 <s> DAARTAASH -0.2109
-2.6990 <s> DAAWAAY -0.2041
-2.3233 <s> DAAYK -0.2361
-2.6990 <s> DABIRZHENET -0.2041
-3.1249 <s> DACHIMA -0.2704
-2.7570 <s> DADAATE -0.2613
-2.6021 <s> DAFROSHET -0.1829
-2.5229 <s> DAGRIM -0.2218
-3.1249 <s> DAHAATAWA -0.2553
-2.9031 <s> DAKAA -0.2319
-2.5229 <s> DAKAN -0.2341
-3.1249 <s> DAKAWET -0.2632
-3.0000 <s> DAM -0.2499
-2.6990 <s> DANORRIM -0.2218
-2.8239 <s> DAPARRIMAWA -0.2258
-2.6021 <s> DARAWA -0.1891
-3.0000 <s> DARBAAZY -0.2467
-3.1249 <s> DARCHWWY -0.2653
-2.8239 <s> DARGAA -0.2341
-2.8239 <s> DARROM -0.2341
-2.7570 <s> DARRWENIN -0.2093
-2.6478 <s> DASHOM -0.1461
-3.0000 <s> DASRAWE -0.1663
-3.1249 <s> DASTY -0.2518
-3.0000 <s> DAYPAAREZIM -0.2576
-2.6990 <s> DAZHYN -0.2185
-2.6021 <s> DEM -0.1996
-2.9031 <s> DIDAAN -0.2156
-2.8239 <s> DILGYR -0.2341
-3.1249 <s> DILL -0.2553
-2.6990 <s> DIRAXT -0.1707
-3.1249 <s> DIRWST -0.2762
-2.8239 <s> DOZYYAWA -0.2218
-2.5229 <s> DWKAAN -0.2392
-2.6990 <s> DWWAM -0.2380
-2.7570 <s> DWWRA -0.2326
-2.6021 <s> DYWAAR -0.2041
-2.6021 <s> FERDAKAAT -0.2264
-2.8239 <s> FERIMAAN -0.2314
-2.7570 <s> GAAZINDAY -0.2218
-2.8239 <s> GAMA -0.2374
-2.6478 <s> GARRAAM -0.2131
-2.4559 <s> GASHA -0.2235
-2.6990 <s> GAYAANDIBWW -0.2093
-2.6021 <s> GHAARDAAN -0.2097
-2.6478 <s> GIRT -0.2499
-3.0000 <s> GIZH -0.2499
-2.8239 <s> GOSHT -0.2374
-2.7570 <s> GOSHTFROSH -0.2258
-2.5229 <s> GWEBIGRA -0.2358
-3.0000 <s> GWLL -0.2285
-3.1249 <s> GWNDEK -0.2583
-2.4559 <s> GWTY -0.2109
-2.9031 <s> GYAA -0.2272
-2.9031 <s> HABWW -0.2272
-2.8239 <s> HAFTA -0.2304
-2.7570 <s> HALLA -0.2326
-3.1249 <s> HALLDASTIM -0.2609
-2.9031 <s> HALLPARRYN -0.2264
-3.3010 <s> HALLYKIRD -0.2730
-2.8239 <s> HAMWWMAAN -0.2304
-3.1249 <s> HAR -0.2583
-2.6990 <s> HARDWW -0.2093
-2.7570 <s> HASHT -0.2355
-3.0000 <s> HAWLER -0.2041
-2.5229 <s> HAAWRRE -0.2355
-2.8239 <s> HAYA -0.2041
-2.4881 <s> HHAZMAAN -0.2237
-2.7570 <s> HOSHA -0.2355
-2.6990 <s> HY -0.1675
-2.8239 <s> HYCH -0.1200
-2.9031 <s> HYWAAY -0.2355
-2.8239 <s> JEYA -0.2175
-2.4881 <s> JWAAN -0.2392
-3.6021 <s> JWTYAAR -0.2825
-2.9031 <s> KA -0.2109
-2.9031 <s> KAAM -0.2361
-2.8239 <s> KAANY -0.2218
-2.9031 <s> KAAT -0.2511
-2.6478 <s> KAATE -0.2272
-2.6478 <s> KALWPALY -0.1903
-3.0000 <s> KAS -0.2389
-2.5229 <s> KIRD -0.2200
-2.8239 <s> KOMPYWTAR -0.2264
-2.9031 <s> KWRDISTAAN -0.1627
-2.8239 <s> KWRRE -0.2218
-3.1249 <s> KWRSY -0.2742
-3.3010 <s> LA -0.2747
-3.1249 <s> LAAY -0.2553
-2.6478 <s> LAGALL -0.1829
-2.8239 <s> LATAMANY -0.2264
-2.6990 <s> LAXOBAAYY -0.1761
-2.6478 <s> LE 0.0000
-3.3010 <s> LEBGRIN -0.2632
-2.6990 <s> LEBWRDIN -0.1919
-3.0000 <s> LEDAXWRRET -0.2527
-2.7570 <s> LEMAAN -0.2523
-2.5229 <s> MAALLY -0.2323
-2.3010 <s> MAAMOSTAA -0.2190
-3.0000 <s> MAAYAWA -0.1549
-2.6990 <s> MABAWA -0.1639
-2.8239 <s> MALLBANDY -0.2341
-3.3010 <s> MAQAST -0.2798
-3.1249 <s> MAYDAANY -0.2609
-3.0000 <s> MIN -0.2486
-2.5607 <s> MINDAALL -0.1476
-2.9031 <s> MIROV -0.2460
-2.8239 <s> NAABYNAAY -0.1065
-2.9031 <s> NAADAM -0.2632
-2.4559 <s> NAAN -0.2369
-2.4260 <s> NAAW -0.2402
-2.6478 <s> NABWW -0.2185
-2.6021 <s> NACHIN -0.2083
-2.7570 <s> NAMAAM -0.1984
-2.7570 <s> NAWAY -0.2041
-2.7570 <s> NAXOSH -0.2293
-2.6990 <s> NIMWNAY -0.1761
-3.1249 <s> NIZHYAAR -0.2609
-2.8239 <s> NIZYK -0.2407
-2.6990 <s> NWEMAAN -0.2253
-2.8239 <s> NWSYN -0.2374
-2.9031 <s> OTOMBELAKA -0.2430
-3.3010 <s> PAAYTAXTY -0.2596
-3.3010 <s> PANJAA -0.2688
-2.5229 <s> PANJARA -0.1549
-2.9031 <s> PARY -0.2511
-2.9031 <s> PENJ -0.2553
-3.0000 <s> PENWWS -0.2553
-2.8239 <s> PEXOSHA -0.2304
-2.8239 <s> PEY -0.2536
-3.3010 <s> PIRSYAAR -0.2775
-2.4260 <s> PIZYSHK -0.1943
-2.6990 <s> POLAKAT -0.1903
-2.6021 <s> POLY -0.2021
-2.4260 <s> PSHWWDAA -0.2319
-2.9031 <s> PYAAWEKY -0.2218
-2.6478 <s> PYROZBE -0.1829
-3.0000 <s> QARAAGHY -0.2389
-2.6021 <s> QWTAABXAANA -0.2470
-2.6990 <s> QWTAABY -0.2341
-3.0000 <s> RRAWISHTEKY -0.1996
-3.0000 <s> RRAAMAAN -0.2553
-2.7570 <s> RRAAST -0.2452
-3.1249 <s> RRAAYALLY -0.2374
-2.5229 <s> RRANG -0.2341
-2.9031 <s> RRAWISHTY -0.2319
-2.6021 <s> RREGADAA -0.1829
-2.5229 <s> RREHHAAN -0.1988
-2.8239 <s> RREZ -0.2455
-2.1707 <s> RROZH -0.2126
-2.4260 <s> RRWWNAAKY -0.2200
-2.8239 <s> SAADA -0.2341
-3.0000 <s> SAAKAARA -0.2139
-2.2798 <s> SAALL -0.2241
-2.7570 <s> SAAM -0.2382
-2.9031 <s> SARATAAY -0.2460
-2.9031 <s> SARAWA -0.2398
-2.9031 <s> SARDAAN -0.2319
-3.0000 <s> SARTAASH -0.2499
-2.8239 <s> SAWZ -0.2218
-2.6478 <s> SAYRAAN -0.2188
-2.9031 <s> SHA -0.2319
-2.5229 <s> SHAARAKA -0.2418
-2.7570 <s> SHAAXY -0.2009
-2.9031 <s> SHAMMAYA -0.2460
-2.9031 <s> SHAQAAMAKA -0.2156
-2.6990 <s> SHEWAAZY -0.2449
-2.8239 <s> SHWENY -0.2341
-2.6021 <s> SHWFER -0.2162
-2.8239 <s> SHYRYNA -0.2109
-3.0000 <s> SILLAAW -0.2389
-3.3010 <s> SIPY -0.2798
-3.1249 <s> SWPAASY -0.2109
-2.6990 <s> SWWDA -0.2527
-2.9031 <s> TAMAASHAAM -0.2430
-2.9031 <s> TANDIRWSTY -0.2571
-3.0000 <s> TANGAANA -0.2389
-2.7570 <s> TANYAA -0.2355
-3.3010 <s> TO -0.2798
-2.7570 <s> TOPAANE -0.2009
-3.0000 <s> TWAANY -0.2553
-3.3010 <s> TWND -0.2663
-2.9031 <s> TYAA -0.2218
-2.6990 <s> WAAYA -0.2109
-2.7570 <s> WAKW -0.1919
-2.7570 <s> WALLAAMY -0.1856
-2.9031 <s> WARBIGRIN -0.2430
-3.0000 <s> WENAKAAN -0.2467
-2.8239 <s> WLLAATAKAY -0.2430
-2.2798 <s> WRYAA -0.2165
-2.5607 <s> WSHA -0.2368
-2.8239 <s> XAAKEKY -0.1761
-2.4881 <s> XAAWEN -0.2300
-2.3979 <s> XEZAAN -0.2144
-3.0000 <s> XIZMATY -0.2398
-2.6478 <s> XOBAAYY -0.1761
-2.8239 <s> XOM 0.0000
-2.5229 <s> XOMAAN -0.2171
-2.6021 <s> XORRAAGIRTIN -0.1891
-2.3979 <s> XOSHDAWE -0.2251
-2.7570 <s> XOY -0.2071
-3.0000 <s> XWAARAWA -0.2576
-2.1549 <s> XWENDIN -0.2398
-2.6478 <s> XWSHK -0.2109
-2.7570 <s> YAARMATY -0.2218
-3.3010 <s> YAARY -0.2663
-2.9031 <s> YAASAA -0.2571
-2.6478 <s> YAKAMIM -0.1946
-2.8239 <s> YAKDANG -0.2167
-3.3010 <s> ZARD -0.2730
-2.9031 <s> ZAWY -0.2319
-2.6021 <s> ZHYAAN -0.1931
-2.9031 <s> ZIMAANY -0.2156
-2.4559 <s> ZOR -0.2369
-3.1249 <s> ZWW -0.2632
-2.6990 <s> ZYAANYAAN -0.2041
-2.4559 <s> ZYRAK -0.2272
-0.9638 AAMEREKY </s> -0.3010
-1.6628 AAMEREKY AAZAABYN -0.2894
-1.6628 AAMEREKY BAASH -0.2881
-1.6628 AAMEREKY BICHYNA -0.1946
-1.6628 AAMEREKY DILL -0.2553
-1.6628 AAMEREKY DWWAM -0.2447
-1.6628 AAMEREKY GAMA -0.1891
-1.6628 AAMEREKY KAANY -0.2888
-1.6628 AAMEREKY KOMPYWTAR -0.2126
-1.6628 AAMEREKY LATAMANY -0.2264
-1.6628 AAMEREKY LEMAAN -0.2139
-1.6628 AAMEREKY MAALLY -0.2197
-1.6628 AAMEREKY NAAN -0.2968
-1.6628 AAMEREKY NWEMAAN -0.2148
-1.6628 AAMEREKY RREHHAAN -0.2940
-1.6628 AAMEREKY SILLAAW -0.1856
-1.6628 AAMEREKY TANGAANA -0.2711
-1.6628 AAMEREKY YAARY -0.2083
-1.6628 AAMEREKY ZHYAAN -0.2923
-1.2041 AASINGAR </s> -0.3010
-1.5051 AASINGAR AAMEREKY -0.2511
-1.5051 AASINGAR BYNY -0.2963
-1.5051 AASINGAR CHAARADAKAAT -0.2218
-1.5051 AASINGAR CHAPDAA -0.1931
-1.5051 AASINGAR CHWAAR -0.2919
-1.5051 AASINGAR GWTY -0.2368
-1.5051 AASINGAR HALLA -0.2326
-1.5051 AASINGAR MABAWA -0.2825
-1.5051 AASINGAR NAAN -0.2418
-1.5051 AASINGAR PANJARA -0.2906
-1.5051 AASINGAR QWTAABXAANA -0.2964
-1.5051 AASINGAR SAAM -0.2478
-1.5051 AASINGAR XOBAAYY -0.2258
-1.5051 AASINGAR XOMAAN -0.2951
-0.8808 AAZAABYN </s> -0.3010
-1.5798 AAZAABYN CHY -0.2564
-1.5798 AAZAABYN DAKAN -0.2958
-1.5798 AAZAABYN HAFTA -0.2900
-1.5798 AAZAABYN HAR -0.2430
-1.5798 AAZAABYN LEDAXWRRET -0.2894
-1.5798 AAZAABYN OTOMBELAKA -0.2900
-1.5798 AAZAABYN PIRSYAAR -0.2894
-1.5798 AAZAABYN RREGADAA -0.2576
-1.5798 AAZAABYN RROZH -0.2982
-1.5798 AAZAABYN SAADA -0.2576
-1.5798 AAZAABYN SHAARAKA -0.2369
-1.5798 AAZAABYN WAAYA -0.2919
-1.5798 AAZAABYN XWENDIN -0.2991
-1.5798 AAZAABYN ZHYAAN -0.2355
-0.9823 AGAR </s> -0.3010
-1.6812 AGAR BAAPYRIM -0.2910
-1.6812 AGAR BASWWDA -0.2906
-1.6812 AGAR BIDWEYN -0.2910
-1.6812 AGAR BIZHY -0.2798
-1.3802 AGAR GARRAAM -0.2863
-1.3802 AGAR HOSHA -0.2148
-1.6812 AGAR MAAYAWA -0.2156
-1.6812 AGAR MIN -0.2808
-1.6812 AGAR NAXOSH -0.2293
-1.6812 AGAR NWEMAAN -0.2148
-1.6812 AGAR OTOMBELAKA -0.2900
-1.6812 AGAR RRAAMAAN -0.2923
-1.6812 AGAR RRANG -0.2966
-1.6812 AGAR RROZH -0.2298
-1.6812 AGAR SARATAAY -0.2906
-1.6812 AGAR SAYRAAN -0.2935
-1.6812 AGAR WAAYA -0.2632
-0.6021 AM </s> -0.3010
-1.5051 AM BINWWSA -0.2118
-1.5051 AM CHAARADAKAAT -0.2888
-1.5051 AM DACHIMA -0.2910
-1.2041 AM DAZHYN -0.2285
-1.5051 AM LEMAAN -0.2139
-1.5051 AM MINDAALL -0.2958
-1.5051 AM POLAKAT -0.2304
-0.7597 AMAANAY </s> -0.3010
-1.6628 AMAANAY BASWWDA -0.2460
-1.6628 AMAANAY BIKAYN -0.2906
-1.6628 AMAANAY BINWWSA -0.2948
-1.6628 AMAANAY DAAR -0.2492
-1.3617 AMAANAY DAAYK -0.2919
-1.3617 AMAANAY DAGRIM -0.2218
-1.6628 AMAANAY DIRWST -0.2588
-1.6628 AMAANAY MAALLY -0.2197
-1.6628 AMAANAY NAADAM -0.2937
-1.6628 AMAANAY NAWAY -0.2900
-1.6628 AMAANAY PSHWWDAA -0.2319
-1.6628 AMAANAY QWTAABY -0.2249
-1.6628 AMAANAY RROZH -0.2298
-0.9183 AMRRO </s> -0.3010
-1.7634 AMRRO AAZAABYN -0.2894
-1.7634 AMRRO AMRRO -0.2935
-1.7634 AMRRO BAFYRRO -0.1761
-1.7634 AMRRO BAYAANY -0.2139
-1.7634 AMRRO CHAPDAA -0.1931
-1.7634 AMRRO DADAATE -0.2956
-1.7634 AMRRO DAKAN -0.2093
-1.7634 AMRRO DARRWENIN -0.2906
-1.7634 AMRRO GARRAAM -0.2937
-1.7634 AMRRO HARDWW -0.2460
-1.7634 AMRRO HYCH -0.1891
-1.7634 AMRRO KAAT -0.2915
-1.7634 AMRRO MAAMOSTAA -0.2359
-1.7634 AMRRO NABWW -0.2926
-1.7634 AMRRO NAXOSH -0.2915
-1.7634 AMRRO PENJ -0.2923
-1.7634 AMRRO RRAWISHTEKY -0.1996
-1.7634 AMRRO RRWWNAAKY -0.2255
-1.4624 AMRRO SAALL -0.2275
-1.7634 AMRRO SHAMMAYA -0.2341
-1.7634 AMRRO XOMAAN -0.2891
-0.9777 ANDAAMAANY </s> -0.3010
-1.5798 ANDAAMAANY BILLIND -0.2962
-1.5798 ANDAAMAANY BIXWENYN -0.2910
-1.5798 ANDAAMAANY CHAPDAA -0.2923
-1.5798 ANDAAMAANY CHY -0.2564
-1.5798 ANDAAMAANY DASTY -0.2852
-1.5798 ANDAAMAANY GAAZINDAY -0.2906
-1.5798 ANDAAMAANY GASHA -0.2430
-1.5798 ANDAAMAANY HAAWRRE -0.2967
-1.5798 ANDAAMAANY HOSHA -0.2923
-1.5798 ANDAAMAANY JWAAN -0.2074
-1.5798 ANDAAMAANY NIZHYAAR -0.2881
-1.2788 ANDAAMAANY RRANG -0.2289
-1.5798 ANDAAMAANY RREGADAA -0.2576
-1.5798 ANDAAMAANY SHWENY -0.1963
-0.8573 ANJAAMY </s> -0.3010
-1.5563 ANJAAMY BAZAWYDAA -0.2218
-1.5563 ANJAAMY DADAATE -0.2956
-1.5563 ANJAAMY DOZYYAWA -0.2430
-1.5563 ANJAAMY GARRAAM -0.2632
-1.5563 ANJAAMY GOSHT -0.2374
-1.5563 ANJAAMY LAGALL -0.2906
-1.5563 ANJAAMY NACHIN -0.2926
-1.5563 ANJAAMY PIZYSHK -0.2954
-1.5563 ANJAAMY SAALL -0.2982
-1.5563 ANJAAMY SIPY -0.1691
-1.5563 ANJAAMY XAAWEN -0.2442
-1.5563 ANJAAMY XWAARAWA -0.2906
-1.5563 ANJAAMY XWENDIN -0.2991
-0.8653 AW </s> -0.3010
-1.6435 AW BAA -0.2894
-1.6435 AW BIZHY -0.2906
-1.6435 AW CHON -0.2942
-1.6435 AW DACHIMA -0.2910
-1.6435 AW DAKAA -0.2009
-1.6435 AW DIRWST -0.2929
-1.6435 AW HYWAAY -0.2253
-1.6435 AW LEMAAN -0.2139
-1.6435 AW POLAKAT -0.2900
-1.6435 AW PRR -0.2840
-1.6435 AW PSHWWDAA -0.2968
-1.6435 AW RREGADAA -0.2906
-1.6435 AW RRWWNAAKY -0.2964
-1.3424 AW TANYAA -0.2833
-1.6435 AW XOSHDAWE -0.2300
-1.0000 BA CHY -0.2957
-1.0000 BA KA -0.2872
-1.0000 BA SHWFER -0.2940
-1.0000 BA XWENDIN -0.2972
-1.0000 BA YAARY -0.2840
-0.9777 BAA </s> -0.3010
-1.5798 BAA AAMEREKY -0.2915
-1.5798 BAA AAZAABYN -0.2398
-1.5798 BAA AMAANAY -0.2915
-1.5798 BAA BYR -0.2926
-1.5798 BAA DAAYK -0.2980
-1.5798 BAA DWWAM -0.2951
-1.2788 BAA GAAZINDAY -0.2093
-1.5798 BAA JWAAN -0.2074
-1.5798 BAA MAALLY -0.2197
-1.5798 BAA NAAN -0.2968
-1.5798 BAA NIZHYAAR -0.2881
-1.5798 BAA PYROZBE -0.2798
-1.5798 BAA QWTAABY -0.2249
-1.5798 BAA WSHA -0.2956
-0.7404 BAAPYRIM </s> -0.3010
-1.6435 BAAPYRIM AGAR -0.2533
-1.6435 BAAPYRIM BASWWDA -0.2906
-1.6435 BAAPYRIM BICHWWKY -0.1856
-1.6435 BAAPYRIM CHYYA -0.2881
-1.6435 BAAPYRIM GHAARDAAN -0.2935
-1.6435 BAAPYRIM GIRT -0.2276
-1.6435 BAAPYRIM GWEBIGRA -0.2178
-1.6435 BAAPYRIM MABAWA -0.2533
-1.6435 BAAPYRIM NIZHYAAR -0.2881
-1.6435 BAAPYRIM POLY -0.2929
-1.6435 BAAPYRIM WAAYA -0.2919
-1.6435 BAAPYRIM WENAKAAN -0.2881
-1.6435 BAAPYRIM XAAWEN -0.2969
-1.6435 BAAPYRIM XWAARAWA -0.1829
-1.5315 BAASH </s> -0.3010
-1.5315 BAASH AMRRO -0.2935
-1.2304 BAASH BAA -0.2775
-1.5315 BAASH GASHA -0.2430
-1.5315 BAASH GWNDEK -0.2872
-1.5315 BAASH HALLA -0.2919
-1.5315 BAASH MABAWA -0.2919
-1.5315 BAASH NAABYNAAY -0.1919
-1.5315 BAASH RRAAST -0.2935
-1.5315 BAASH RRAAYALLY -0.2808
-1.5315 BAASH SAADA -0.2906
-1.5315 BAASH TANDIRWSTY -0.2083
-1.5315 BAASH XWENDIN -0.2972
-1.5315 BAASH YAKDANG -0.2881
-1.5315 BAASH ZOR -0.2924
-1.5315 BAASH ZWW -0.2888
-0.8653 BAAWK </s> -0.3010
-1.8195 BAAWK AAZAABYN -0.2398
-1.8195 BAAWK BASHA -0.2919
-1.8195 BAAWK BICHYNA -0.2915
-1.8195 BAAWK CHWAAR -0.2109
-1.8195 BAAWK CHWNKA -0.2403
-1.8195 BAAWK DABIRZHENET -0.2900
-1.8195 BAAWK DAHAATAWA -0.2863
-1.5185 BAAWK DARAWA -0.2486
-1.8195 BAAWK DAYPAAREZIM -0.1829
-1.8195 BAAWK DYWAAR -0.2923
-1.8195 BAAWK FERDAKAAT -0.2894
-1.8195 BAAWK GAMA -0.2910
-1.8195 BAAWK HALLPARRYN -0.2264
-1.8195 BAAWK HAMWWMAAN -0.2900
-1.8195 BAAWK HAAWRRE -0.2967
-1.8195 BAAWK KIRD -0.2964
-1.8195 BAAWK NACHIN -0.2840
-1.8195 BAAWK SHAARAKA -0.2369
-1.8195 BAAWK SHEWAAZY -0.2374
-1.8195 BAAWK SHWENY -0.2906
-1.8195 BAAWK XEZAAN -0.2917
-1.8195 BAAWK XWENDIN -0.2991
-1.8195 BAAWK ZOR -0.2968
-0.8653 BAAXAKA </s> -0.3010
-1.6435 BAAXAKA DAKAN -0.2958
-1.6435 BAAXAKA DAPARRIMAWA -0.2258
-1.6435 BAAXAKA DARAWA -0.2910
-1.6435 BAAXAKA DARRWENIN -0.2798
-1.6435 BAAXAKA DAYPAAREZIM -0.1829
-1.6435 BAAXAKA HAAWRRE -0.2967
-1.3424 BAAXAKA HOSHA -0.2742
-1.6435 BAAXAKA KWRSY -0.2253
-1.6435 BAAXAKA MIN -0.2910
-1.6435 BAAXAKA NWEMAAN -0.2923
-1.6435 BAAXAKA QWTAABY -0.2852
-1.6435 BAAXAKA RRAWISHTY -0.2881
-1.6435 BAAXAKA SHA -0.2881
-1.6435 BAAXAKA SHAQAAMAKA -0.2852
-1.6435 BAAXAKA WSHA -0.2956
-0.7510 BAAXCHAKAY </s> -0.3010
-1.7924 BAAXCHAKAY BIPIRSIN -0.2771
-1.7924 BAAXCHAKAY DAA -0.2632
-1.7924 BAAXCHAKAY DAAYK -0.2980
-1.7924 BAAXCHAKAY DILGYR -0.2688
-1.7924 BAAXCHAKAY GAYAANDIBWW -0.2218
-1.7924 BAAXCHAKAY GOSHT -0.2910
-1.7924 BAAXCHAKAY HALLA -0.2919
-1.7924 BAAXCHAKAY HAR -0.2872
-1.7924 BAAXCHAKAY HY -0.2609
-1.4914 BAAXCHAKAY PYAAWEKY -0.2711
-1.7924 BAAXCHAKAY QWTAABXAANA -0.2144
-1.7924 BAAXCHAKAY RRAAST -0.2935
-1.7924 BAAXCHAKAY SARATAAY -0.2906
-1.7924 BAAXCHAKAY SAYRAAN -0.2452
-1.4914 BAAXCHAKAY SHAARAKA -0.2924
-1.4914 BAAXCHAKAY XWENDIN -0.2972
-1.7924 BAAXCHAKAY ZIMAANY -0.2852
-1.0170 BAAYAKY </s> -0.3010
-1.7160 BAAYAKY BIKAAT -0.2872
-1.7160 BAAYAKY BWW -0.2341
-1.7160 BAAYAKY DIRAXT -0.2929
-1.7160 BAAYAKY GAAZINDAY -0.2218
-1.7160 BAAYAKY GAMA -0.1891
-1.7160 BAAYAKY HARDWW -0.2906
-1.7160 BAAYAKY HHAZMAAN -0.2963
-1.7160 BAAYAKY MAAMOSTAA -0.2975
-1.7160 BAAYAKY NAAN -0.2968
-1.7160 BAAYAKY NWEMAAN -0.2923
-1.4150 BAAYAKY OTOMBELAKA -0.2788
-1.7160 BAAYAKY RRAAMAAN -0.2923
-1.7160 BAAYAKY RROZH -0.2298
-1.7160 BAAYAKY SHA -0.2467
-1.7160 BAAYAKY SHAMMAYA -0.2906
-1.4150 BAAYAKY WSHA -0.1973
-1.7160 BAAYAKY ZOR -0.2968
-1.7160 BAAYAKY ZYAANYAAN -0.2900
-1.7160 BAAYAKY ZYRAK -0.2430
-0.6021 BAFYRRO </s> -0.3010
-1.5051 BAFYRRO BIKAYN -0.2906
-1.5051 BAFYRRO GOSHTFROSH -0.2808
-1.5051 BAFYRRO GWNDEK -0.2272
-1.5051 BAFYRRO PYROZBE -0.2906
-1.5051 BAFYRRO SAAKAARA -0.2808
-1.5051 BAFYRRO SHWFER -0.2246
-1.5051 BAFYRRO WARBIGRIN -0.2900
-1.5051 BAFYRRO WRYAA -0.2977
-1.0212 BAKAARDENET </s> -0.3010
-1.6232 BAKAARDENET BAKAARDENET -0.2906
-1.6232 BAKAARDENET BIXWENAWA -0.2863
-1.6232 BAKAARDENET BO -0.2109
-1.6232 BAKAARDENET CHAND -0.2553
-1.6232 BAKAARDENET DAAYK -0.2980
-1.6232 BAKAARDENET DAKAN -0.2093
-1.6232 BAKAARDENET GHAARDAAN -0.2935
-1.6232 BAKAARDENET HARDWW -0.2906
-1.6232 BAKAARDENET LEBWRDIN -0.2632
-1.6232 BAKAARDENET LEMAAN -0.2139
-1.6232 BAKAARDENET NAAW -0.2977
-1.6232 BAKAARDENET RRWWNAAKY -0.2255
-1.6232 BAKAARDENET SAALL -0.2275
-1.6232 BAKAARDENET SARATAAY -0.2906
-1.6232 BAKAARDENET SARTAASH -0.2218
-1.6232 BAKAARDENET SHAAXY -0.2609
-1.6232 BAKAARDENET XWAARAWA -0.1829
-0.9031 BALLAAM </s> -0.3010
-1.6021 BALLAAM AAMEREKY -0.2915
-1.6021 BALLAAM DARBAAZY -0.2881
-1.6021 BALLAAM DIRAXT -0.2929
-1.6021 BALLAAM FERDAKAAT -0.2953
-1.6021 BALLAAM GASHA -0.2883
-1.6021 BALLAAM GIRT -0.2962
-1.6021 BALLAAM GIZH -0.2888
-1.6021 BALLAAM KALWPALY -0.2430
-1.6021 BALLAAM KWRRE -0.2906
-1.6021 BALLAAM NIZYK -0.2407
-1.6021 BALLAAM SIPY -0.2906
-1.6021 BALLAAM WLLAATAKAY -0.2326
-1.6021 BALLAAM XWENDIN -0.2331
-1.6021 BALLAAM ZAWY -0.2009
-1.6021 BALLAAM ZOR -0.2968
-1.0212 BASAR </s> -0.3010
-1.6232 BASAR BICHYNA -0.1946
-1.6232 BASAR BIDAWA -0.2467
-1.6232 BASAR BYR -0.2926
-1.6232 BASAR DIRWST -0.2588
-1.6232 BASAR DWWAM -0.2951
-1.6232 BASAR HABWW -0.2872
-1.6232 BASAR HAAWRRE -0.2253
-1.6232 BASAR HHAZMAAN -0.2963
-1.6232 BASAR KOMPYWTAR -0.2894
-1.6232 BASAR LAAY -0.2218
-1.6232 BASAR MIROV -0.2460
-1.6232 BASAR NAAN -0.2418
-1.6232 BASAR PEXOSHA -0.2900
-1.6232 BASAR QWTAABY -0.2932
-1.6232 BASAR SARAWA -0.2527
-1.6232 BASAR SWWDA -0.2894
-1.6232 BASAR XEZAAN -0.2310
-0.6021 BASHA </s> -0.3010
-1.6812 BASHA BAAPYRIM -0.2139
-1.6812 BASHA BAYAANY -0.2139
-1.6812 BASHA BAZAWYDAA -0.2863
-1.6812 BASHA BO -0.2919
-1.6812 BASHA GAYAANDIBWW -0.2906
-1.6812 BASHA KAAM -0.2888
-1.6812 BASHA KAAT -0.2915
-1.6812 BASHA KWRDISTAAN -0.2910
-1.6812 BASHA KWRSY -0.2253
-1.3802 BASHA SAALL -0.2954
-1.6812 BASHA SWWDA -0.2953
-0.9243 BASWWDA </s> -0.3010
-1.6232 BASWWDA AMAANAY -0.2915
-1.6232 BASWWDA BIGRET -0.2919
-1.6232 BASWWDA BIZHY -0.2906
-1.6232 BASWWDA DAAHAATWWYN -0.1938
-1.6232 BASWWDA DAAYK -0.2980
-1.6232 BASWWDA DWWAM -0.2951
-1.6232 BASWWDA GASHA -0.2430
-1.6232 BASWWDA HALLA -0.2919
-1.6232 BASWWDA HHAZMAAN -0.2817
-1.6232 BASWWDA KAANY -0.2071
-1.6232 BASWWDA KAAT -0.2293
-1.6232 BASWWDA WALLAAMY -0.2711
-1.6232 BASWWDA WLLAATAKAY -0.2326
-1.6232 BASWWDA XWSHK -0.2919
-1.6232 BASWWDA YAASAA -0.2185
-1.6232 BASWWDA ZOR -0.2167
-0.7404 BAYAANY </s> -0.3010
-1.9445 BAYAANY AW -0.2808
-1.9445 BAYAANY BIRAAT -0.2888
-1.9445 BAYAANY BYNY -0.2963
-1.9445 BAYAANY DAA -0.2632
-1.9445 BAYAANY DAKAN -0.2093
-1.9445 BAYAANY DAM -0.2071
-1.9445 BAYAANY DAPARRIMAWA -0.2258
-1.9445 BAYAANY FERDAKAAT -0.2953
-1.9445 BAYAANY GAMA -0.2910
-1.9445 BAYAANY HALLYKIRD -0.2272
-1.9445 BAYAANY HYCH -0.2910
-1.9445 BAYAANY KAATE -0.2942
-1.9445 BAYAANY KAS -0.2389
-1.9445 BAYAANY LAGALL -0.2906
-1.9445 BAYAANY NAAN -0.2924
-1.9445 BAYAANY NAMAAM -0.2894
-1.9445 BAYAANY PIZYSHK -0.2954
-1.9445 BAYAANY PRR -0.2083
-1.9445 BAYAANY PSHWWDAA -0.2968
-1.9445 BAYAANY QWTAABXAANA -0.2144
-1.9445 BAYAANY TANYAA -0.2041
-1.9445 BAYAANY WARBIGRIN -0.2900
-1.9445 BAYAANY WRYAA -0.2285
-1.9445 BAYAANY WSHA -0.1973
-1.9445 BAYAANY XOMAAN -0.2380
-1.6435 BAYAANY XWENDIN -0.2972
-1.9445 BAYAANY ZYRAK -0.2965
-0.7782 BAZAWYDAA </s> -0.3010
-1.4771 BAZAWYDAA AMRRO -0.2935
-1.4771 BAZAWYDAA BAKAARDENET -0.2906
-1.4771 BAZAWYDAA BASWWDA -0.2906
-1.4771 BAZAWYDAA HALLYKIRD -0.2272
-1.4771 BAZAWYDAA HAAWRRE -0.2253
-1.4771 BAZAWYDAA PENWWS -0.2175
-1.4771 BAZAWYDAA RRWWNAAKY -0.2255
-1.4771 BAZAWYDAA TAMAASHAAM -0.2553
-1.4771 BAZAWYDAA WARBIGRIN -0.2900
-1.4771 BAZAWYDAA XORRAAGIRTIN -0.2910
-0.6320 BICHWWKY </s> -0.3010
-1.4771 BICHWWKY BAAPYRIM -0.2910
-1.4771 BICHWWKY BIDWEYN -0.2258
-1.4771 BICHWWKY CHWNKA -0.2817
-1.4771 BICHWWKY DAAYK -0.2430
-1.4771 BICHWWKY KAAT -0.2915
-1.4771 BICHWWKY NAXOSH -0.2293
-1.4771 BICHWWKY PEXOSHA -0.2430
-1.4771 BICHWWKY WRYAA -0.2285
-0.6628 BICHYNA </s> -0.3010
-1.6628 BICHYNA BICHYNA -0.2915
-1.6628 BICHYNA BIXWENYN -0.2808
-1.6628 BICHYNA CHWAAR -0.2825
-1.6628 BICHYNA DAANAA -0.2906
-1.6628 BICHYNA DAAWAAY -0.2304
-1.6628 BICHYNA DAFROSHET -0.2576
-1.6628 BICHYNA HAAWRRE -0.2967
-1.6628 BICHYNA KA -0.2430
-1.6628 BICHYNA KWRDISTAAN -0.2139
-1.6628 BICHYNA NAADAM -0.2937
-1.6628 BICHYNA SHAARAKA -0.2968
-1.6628 BICHYNA XOSHDAWE -0.2969
-1.6628 BICHYNA XOY -0.2888
-0.9294 BIDAWA </s> -0.3010
-1.5315 BIDAWA CHAPDAA -0.2923
-1.5315 BIDAWA CHIRAAYA -0.2910
-1.5315 BIDAWA CHWAAR -0.2919
-1.5315 BIDAWA DAARTAASH -0.2430
-1.5315 BIDAWA DADAATE -0.2956
-1.5315 BIDAWA DAGRIM -0.2852
-1.5315 BIDAWA GAAZINDAY -0.2906
-1.5315 BIDAWA HAFTA -0.2900
-1.5315 BIDAWA KIRD -0.2417
-1.5315 BIDAWA RREZ -0.1703
-1.5315 BIDAWA SAAM -0.2926
-1.5315 BIDAWA SHEWAAZY -0.2374
-1.5315 BIDAWA TYAA -0.2888
-0.7984 BIDWEYN </s> -0.3010
-1.6435 BIDWEYN BOYAAXCHY -0.2156
-1.6435 BIDWEYN CHAND -0.2878
-1.6435 BIDWEYN CHON -0.2352
-1.6435 BIDWEYN DACHIMA -0.2910
-1.6435 BIDWEYN DAKAN -0.2958
-1.6435 BIDWEYN DAPARRIMAWA -0.2910
-1.6435 BIDWEYN DIRAXT -0.2407
-1.6435 BIDWEYN HAAWRRE -0.2967
-1.6435 BIDWEYN MAAMOSTAA -0.2359
-1.6435 BIDWEYN PENJ -0.2923
-1.6435 BIDWEYN POLAKAT -0.2304
-1.6435 BIDWEYN RRAAMAAN -0.2923
-1.6435 BIDWEYN SARATAAY -0.2460
-1.6435 BIDWEYN TANDIRWSTY -0.2083
-1.6435 BIDWEYN ZYRAK -0.2965
-0.9031 BIGRET </s> -0.3010
-1.6812 BIGRET BAAWK -0.2944
-1.6812 BIGRET BICHYNA -0.1946
-1.6812 BIGRET DADAATE -0.2430
-1.6812 BIGRET DAGRIM -0.2280
-1.6812 BIGRET DAM -0.2071
-1.6812 BIGRET GIRT -0.2962
-1.6812 BIGRET KAANY -0.2888
-1.6812 BIGRET LEMAAN -0.2139
-1.6812 BIGRET MABAWA -0.2919
-1.6812 BIGRET MIROV -0.2906
-1.6812 BIGRET NAAN -0.2968
-1.6812 BIGRET PIZYSHK -0.2663
-1.6812 BIGRET QWTAABXAANA -0.2144
-1.6812 BIGRET RREZ -0.2923
-1.6812 BIGRET RROZH -0.2298
-1.6812 BIGRET SHEWAAZY -0.2374
-1.6812 BIGRET SIPY -0.2906
-1.6812 BIGRET WRYAA -0.2977
-0.6021 BIKAAT </s> -0.3010
-1.5051 BIKAAT BIDWEYN -0.2258
-1.5051 BIKAAT DARAWA -0.2910
-1.5051 BIKAAT RREGADAA -0.2906
-1.5051 BIKAAT RREHHAAN -0.2940
-1.5051 BIKAAT RROZH -0.2982
-1.5051 BIKAAT WAAYA -0.2825
-1.5051 BIKAAT WENAKAAN -0.2881
-1.5051 BIKAAT YAKDANG -0.2467
-0.8451 BIKAYN </s> -0.3010
-1.6232 BIKAYN AAZAABYN -0.2894
-1.6232 BIKAYN BAKAARDENET -0.2906
-1.6232 BIKAYN DAARISTAANA -0.2863
-1.3222 BIKAYN DIRWST -0.2499
-1.3222 BIKAYN KWRRE -0.2218
-1.6232 BIKAYN MAQAST -0.2906
-1.6232 BIKAYN NIZYK -0.2929
-1.6232 BIKAYN SARAWA -0.2527
-1.6232 BIKAYN SHYRYNA -0.2730
-1.6232 BIKAYN SIPY -0.2906
-1.6232 BIKAYN TANGAANA -0.2711
-1.6232 BIKAYN YAASAA -0.2926
-1.6232 BIKAYN ZAWY -0.2881
-0.7782 BILLIND </s> -0.3010
-1.9542 BILLIND AAZAABYN -0.2894
-1.9542 BILLIND BALLAAM -0.2900
-1.9542 BILLIND BICHWWKY -0.2863
-1.9542 BILLIND BIDAWA -0.2467
-1.9542 BILLIND BYNY -0.2963
-1.9542 BILLIND CHY -0.2564
-1.9542 BILLIND DADAATE -0.2956
-1.9542 BILLIND DAFROSHET -0.2906
-1.9542 BILLIND DAPARRIMAWA -0.2258
-1.9542 BILLIND DASRAWE -0.2863
-1.9542 BILLIND DILGYR -0.2906
-1.9542 BILLIND DWWRA -0.2533
-1.9542 BILLIND GOSHT -0.2374
-1.9542 BILLIND HABWW -0.2872
-1.9542 BILLIND HAFTA -0.2900
-1.9542 BILLIND HAR -0.2730
-1.9542 BILLIND JWAAN -0.2074
-1.9542 BILLIND KA -0.2430
-1.9542 BILLIND MALLBANDY -0.2093
-1.9542 BILLIND NABWW -0.2478
-1.9542 BILLIND PIZYSHK -0.2954
-1.9542 BILLIND PSHWWDAA -0.2968
-1.9542 BILLIND QWTAABY -0.2249
-1.9542 BILLIND RRAWISHTEKY -0.1996
-1.9542 BILLIND SAYRAAN -0.2452
-1.9542 BILLIND SHAMMAYA -0.2906
-1.9542 BILLIND TAMAASHAAM -0.2553
-1.9542 BILLIND WSHA -0.1973
-1.9542 BILLIND XOSHDAWE -0.2300
-1.9542 BILLIND XWENDIN -0.2331
-0.7984 BINARRATY </s> -0.3010
-1.6435 BINARRATY BILLIND -0.2962
-1.6435 BINARRATY BO -0.2109
-1.6435 BINARRATY GIZH -0.2888
-1.6435 BINARRATY GOSHTFROSH -0.2910
-1.6435 BINARRATY HAWLER -0.2788
-1.6435 BINARRATY KAATE -0.2942
-1.6435 BINARRATY NAWAY -0.1903
-1.6435 BINARRATY PRR -0.2840
-1.6435 BINARRATY RRAAMAAN -0.2355
-1.6435 BINARRATY SAAM -0.2926
-1.3424 BINARRATY TO -0.2798
-1.6435 BINARRATY WAKW -0.2361
-1.6435 BINARRATY XOSHDAWE -0.2300
-1.6435 BINARRATY XWENDIN -0.2331
-0.7312 BINWWSA </s> -0.3010
-1.8451 BINWWSA AASINGAR -0.2872
-1.8451 BINWWSA BAKAARDENET -0.2906
-1.8451 BINWWSA BYNY -0.2915
-1.8451 BINWWSA CHIRAAYA -0.2258
-1.8451 BINWWSA CHYYA -0.2467
-1.8451 BINWWSA DAAYK -0.2980
-1.8451 BINWWSA DABIRZHENET -0.2900
-1.8451 BINWWSA DARRWENIN -0.2341
-1.8451 BINWWSA DEM -0.2919
-1.5441 BINWWSA DILGYR -0.2798
-1.8451 BINWWSA FERIMAAN -0.2846
-1.8451 BINWWSA GARRAAM -0.2937
-1.8451 BINWWSA GOSHT -0.2910
-1.5441 BINWWSA GWTY -0.2304
-1.8451 BINWWSA NACHIN -0.2926
-1.8451 BINWWSA SARAWA -0.2894
-1.8451 BINWWSA SIPY -0.1691
-1.8451 BINWWSA WARBIGRIN -0.2900
-1.8451 BINWWSA XAAWEN -0.2442
-1.8451 BINWWSA XOY -0.2218
-1.2711 BIPIRSIN </s> -0.3010
-1.7482 BIPIRSIN BIRAAT -0.2888
-1.7482 BIPIRSIN BIXWENAWA -0.2863
-1.7482 BIPIRSIN BIXWENYN -0.2258
-1.7482 BIPIRSIN BO -0.2919
-1.4472 BIPIRSIN BYNY -0.2349
-1.7482 BIPIRSIN CHYYA -0.2467
-1.7482 BIPIRSIN DAKAWET -0.2888
-1.7482 BIPIRSIN DARGAA -0.2906
-1.7482 BIPIRSIN DWWRA -0.2919
-1.7482 BIPIRSIN DYWAAR -0.2923
-1.7482 BIPIRSIN FERIMAAN -0.2021
-1.7482 BIPIRSIN HASHT -0.2041
-1.7482 BIPIRSIN HHAZMAAN -0.2963
-1.7482 BIPIRSIN JEYA -0.2900
-1.7482 BIPIRSIN MAALLY -0.2197
-1.7482 BIPIRSIN MAAYAWA -0.2852
-1.7482 BIPIRSIN MINDAALL -0.2906
-1.7482 BIPIRSIN MIROV -0.2906
-1.7482 BIPIRSIN NAAN -0.2968
-1.7482 BIPIRSIN PSHWWDAA -0.2968
-1.7482 BIPIRSIN QWTAABXAANA -0.2144
-1.7482 BIPIRSIN SAALL -0.2954
-1.7482 BIPIRSIN TO -0.2906
-1.7482 BIPIRSIN TWAANY -0.2900
-1.0792 BIRAAT </s> -0.3010
-1.5563 BIRAAT AASINGAR -0.2872
-1.5563 BIRAAT BOYAAXCHY -0.2852
-1.5563 BIRAAT CH -0.2016
-1.5563 BIRAAT CHAPDAA -0.1931
-1.5563 BIRAAT GARRAAM -0.2937
-1.5563 BIRAAT GOSHT -0.2910
-1.5563 BIRAAT HAAWRRE -0.2967
-1.5563 BIRAAT KIRD -0.2964
-1.5563 BIRAAT LEDAXWRRET -0.2894
-1.5563 BIRAAT MAQAST -0.2093
-1.5563 BIRAAT PIZYSHK -0.2954
-1.5563 BIRAAT RRAAMAAN -0.2355
-1.5563 BIRAAT RRANG -0.2966
-1.5563 BIRAAT RRWWNAAKY -0.2255
-1.5563 BIRAAT ZAWY -0.2881
-1.4771 BIXWENAWA </s> -0.3010
-1.4771 BIXWENAWA BAAWK -0.2944
-1.4771 BIXWENAWA DAAYK -0.2950
-1.4771 BIXWENAWA DADAATE -0.2430
-1.1761 BIXWENAWA DAGRIM -0.2798
-1.4771 BIXWENAWA DAM -0.2071
-1.4771 BIXWENAWA DIRWST -0.2929
-1.4771 BIXWENAWA DWWRA -0.2919
-1.4771 BIXWENAWA JWAAN -0.2966
-1.4771 BIXWENAWA PYROZBE -0.2906
-1.4771 BIXWENAWA SAALL -0.2275
-1.4771 BIXWENAWA TYAA -0.2888
-1.4771 BIXWENAWA XWENDIN -0.2972
-1.4771 BIXWENAWA YAKAMIM -0.2915
-0.7984 BIXWENYN </s> -0.3010
-1.3424 BIXWENYN BILLIND -0.2218
-1.6435 BIXWENYN BINWWSA -0.2118
-1.6435 BIXWENYN CHWAAR -0.2109
-1.6435 BIXWENYN DAGRIM -0.2958
-1.6435 BIXWENYN GIRT -0.2276
-1.6435 BIXWENYN LEBGRIN -0.2825
-1.6435 BIXWENYN MAAMOSTAA -0.2359
-1.6435 BIXWENYN MIN -0.2910
-1.6435 BIXWENYN MINDAALL -0.2958
-1.6435 BIXWENYN PEY -0.2935
-1.6435 BIXWENYN RRAAST -0.2452
-1.6435 BIXWENYN WRYAA -0.2977
-1.6435 BIXWENYN XWENDIN -0.2331
-1.6435 BIXWENYN ZYRAK -0.2430
-1.0212 BIZHY </s> -0.3010
-1.6232 BIZHY BAAYAKY -0.2571
-1.3222 BIZHY BASHA -0.1761
-1.6232 BIZHY DADAATE -0.2430
-1.6232 BIZHY DANORRIM -0.2632
-1.6232 BIZHY DAPARRIMAWA -0.2910
-1.6232 BIZHY GWEBIGRA -0.2178
-1.6232 BIZHY HALLYKIRD -0.2872
-1.6232 BIZHY HYCH -0.2910
-1.6232 BIZHY NAABYNAAY -0.1919
-1.6232 BIZHY PEY -0.2858
-1.3222 BIZHY PSHWWDAA -0.2269
-1.6232 BIZHY RREZ -0.1703
-1.6232 BIZHY RRWWNAAKY -0.2255
-1.6232 BIZHY WENAKAAN -0.2319
-1.6232 BIZHY YAASAA -0.2185
-0.7270 BO </s> -0.3010
-1.6812 BO BICHYNA -0.2915
-1.6812 BO DAHAATAWA -0.2218
-1.6812 BO DWWAM -0.2951
-1.6812 BO GASHA -0.2430
-1.6812 BO HAMWWMAAN -0.2304
-1.6812 BO HYWAAY -0.2923
-1.6812 BO LEBWRDIN -0.2888
-1.6812 BO NAWAY -0.2788
-1.6812 BO NIZYK -0.2929
-1.6812 BO SAAKAARA -0.2808
-1.6812 BO SAALL -0.2275
-1.6812 BO SHAMMAYA -0.2341
-1.6812 BO SWWDA -0.2953
-1.6812 BO TANDIRWSTY -0.2083
-1.6812 BO XWENDIN -0.2331
-0.7482 BOYAAXCHY </s> -0.3010
-1.4472 BOYAAXCHY KALWPALY -0.2900
-1.4472 BOYAAXCHY LAAY -0.2218
-1.4472 BOYAAXCHY MAAMOSTAA -0.2939
-1.4472 BOYAAXCHY NAAW -0.2324
-1.4472 BOYAAXCHY SARTAASH -0.2888
-1.4472 BOYAAXCHY TANGAANA -0.2863
-1.4472 BOYAAXCHY TANYAA -0.2923
-1.4472 BOYAAXCHY TOPAANE -0.2319
-1.4472 BOYAAXCHY XAAWEN -0.2442
-0.8451 BWW </s> -0.3010
-1.8451 BWW AGAR -0.2919
-1.8451 BWW BAAYAKY -0.2926
-1.8451 BWW CH -0.2910
-1.5441 BWW DADAATE -0.2900
-1.8451 BWW DAPARRIMAWA -0.2258
-1.8451 BWW GOSHT -0.2910
-1.8451 BWW HAFTA -0.2900
-1.8451 BWW HAR -0.2872
-1.8451 BWW HAAWRRE -0.2253
-1.5441 BWW HYWAAY -0.2833
-1.8451 BWW KIRD -0.2964
-1.8451 BWW LAGALL -0.2688
-1.8451 BWW MABAWA -0.2919
-1.8451 BWW MAQAST -0.2906
-1.8451 BWW NAAW -0.2324
-1.8451 BWW NAXOSH -0.2915
-1.8451 BWW PRR -0.2840
-1.5441 BWW PSHWWDAA -0.2269
-1.8451 BWW XOSHDAWE -0.2300
-1.8451 BWW XWAARAWA -0.1829
-1.5441 BWW XWENDIN -0.2972
-0.8846 BYNY </s> -0.3010
-1.9638 BYNY AMAANAY -0.2817
-1.9638 BYNY ANDAAMAANY -0.2527
-1.9638 BYNY BAKAARDENET -0.2576
-1.9638 BYNY BIKAAT -0.1761
-1.9638 BYNY BIPIRSIN -0.2932
-1.9638 BYNY CHIRAAYA -0.2910
-1.9638 BYNY CHON -0.2872
-1.9638 BYNY CHWAAR -0.2919
-1.9638 BYNY CHWNKA -0.2403
-1.6628 BYNY DAAYK -0.2430
-1.9638 BYNY DAPARRIMAWA -0.2258
-1.9638 BYNY DEM -0.2533
-1.9638 BYNY FERDAKAAT -0.2527
-1.9638 BYNY GOSHTFROSH -0.2374
-1.9638 BYNY HAMWWMAAN -0.2304
-1.9638 BYNY LATAMANY -0.2894
-1.9638 BYNY LAXOBAAYY -0.2872
-1.9638 BYNY MAAMOSTAA -0.2359
-1.6628 BYNY PEY -0.2858
-1.9638 BYNY PRR -0.2840
-1.9638 BYNY PYAAWEKY -0.2863
-1.9638 BYNY PYROZBE -0.2906
-1.9638 BYNY SAALL -0.2954
-1.9638 BYNY SHAARAKA -0.2369
-1.9638 BYNY TOPAANE -0.2319
-1.9638 BYNY WRYAA -0.2285
-1.9638 BYNY XOBAAYY -0.2910
-1.9638 BYNY XOMAAN -0.2380
-1.9638 BYNY XORRAAGIRTIN -0.2910
-1.9638 BYNY XWENDIN -0.2331
-1.9638 BYNY ZHYAAN -0.2923
-1.9638 BYNY ZOR -0.2968
-1.0170 BYR </s> -0.3010
-1.7160 BYR BAAYAKY -0.2926
-1.7160 BYR BASAR -0.2906
-1.7160 BYR CHY -0.2957
-1.7160 BYR DADAATE -0.2430
-1.7160 BYR DARBAAZY -0.2881
-1.7160 BYR DWWRA -0.2919
-1.7160 BYR GWNDEK -0.2272
-1.7160 BYR HOSHA -0.2923
-1.7160 BYR KWRDISTAAN -0.2910
-1.7160 BYR LEBWRDIN -0.2888
-1.7160 BYR MAALLY -0.2197
-1.7160 BYR MAYDAANY -0.2747
-1.7160 BYR NAAN -0.2968
-1.7160 BYR NIMWNAY -0.2583
-1.7160 BYR RRAAMAAN -0.2923
-1.7160 BYR RRANG -0.2921
-1.7160 BYR RROZH -0.2982
-1.7160 BYR SIPY -0.2906
-1.7160 BYR SWWDA -0.2953
-1.7160 BYR WENAKAAN -0.2319
-1.7160 BYR XOY -0.2218
-0.6892 CH </s> -0.3010
-1.6435 CH BAAPYRIM -0.2139
-1.6435 CH BASAR -0.2906
-1.6435 CH BIXWENYN -0.2910
-1.6435 CH DAGRIM -0.2958
-1.6435 CH KIRD -0.2964
-1.6435 CH MAAMOSTAA -0.2975
-1.6435 CH PYROZBE -0.2906
-1.6435 CH SAALL -0.2982
-1.6435 CH SWWDA -0.2953
-1.6435 CH TOPAANE -0.2881
-1.6435 CH WLLAATAKAY -0.2919
-1.6435 CH XIZMATY -0.2894
-1.6435 CH YAARMATY -0.2218
-0.7782 CHAARADAKAAT </s> -0.3010
-1.5563 CHAARADAKAAT AM -0.1761
-1.5563 CHAARADAKAAT BIZHY -0.2906
-1.5563 CHAARADAKAAT BO -0.2109
-1.5563 CHAARADAKAAT BYNY -0.2963
-1.5563 CHAARADAKAAT DAAR -0.2956
-1.5563 CHAARADAKAAT DWWAM -0.2891
-1.5563 CHAARADAKAAT DYWAAR -0.2553
-1.5563 CHAARADAKAAT FERDAKAAT -0.2953
-1.5563 CHAARADAKAAT HAAWRRE -0.2967
-1.5563 CHAARADAKAAT RRAWISHTY -0.2009
-1.5563 CHAARADAKAAT YAARMATY -0.2919
-1.5563 CHAARADAKAAT YAASAA -0.2926
-0.7782 CHAAWIM </s> -0.3010
-1.5563 CHAAWIM BAAWK -0.2374
-1.5563 CHAAWIM CHAAWIM -0.2218
-1.5563 CHAAWIM CHWNKA -0.2915
-1.5563 CHAAWIM DAARISTAANA -0.2041
-1.5563 CHAAWIM DAARTAASH -0.2730
-1.5563 CHAAWIM DAZHYN -0.2285
-1.5563 CHAAWIM GASHA -0.2968
-1.5563 CHAAWIM HALLDASTIM -0.2881
-1.5563 CHAAWIM NAAN -0.2968
-1.5563 CHAAWIM NAAW -0.2324
-1.5563 CHAAWIM NWEMAAN -0.2148
-1.5563 CHAAWIM WSHA -0.1973
-1.0000 CHAND </s> -0.3010
-2.0000 CHAND AAZAABYN -0.2894
-2.0000 CHAND ANJAAMY -0.2888
-1.6990 CHAND AW -0.2808
-2.0000 CHAND BAAWK -0.2944
-2.0000 CHAND BAAXCHAKAY -0.2162
-1.6990 CHAND BASAR -0.2576
-2.0000 CHAND BIRAAT -0.2888
-2.0000 CHAND BIZHY -0.2576
-2.0000 CHAND DAAYK -0.2980
-2.0000 CHAND DAFROSHET -0.2906
-2.0000 CHAND DAZHYN -0.2926
-2.0000 CHAND DIRWST -0.2588
-2.0000 CHAND DYWAAR -0.2923
-2.0000 CHAND GWTY -0.2956
-2.0000 CHAND HAYA -0.2389
-2.0000 CHAND JWAAN -0.2074
-1.5229 CHAND MAALLY -0.2068
-2.0000 CHAND MAAMOSTAA -0.2975
-2.0000 CHAND MAYDAANY -0.2881
-2.0000 CHAND NAAW -0.2977
-2.0000 CHAND NWSYN -0.2486
-2.0000 CHAND PARY -0.2181
-2.0000 CHAND PEY -0.2935
-2.0000 CHAND RRAAST -0.2452
-2.0000 CHAND RRAWISHTY -0.2009
-2.0000 CHAND RROZH -0.2953
-2.0000 CHAND SAALL -0.2275
-2.0000 CHAND SARDAAN -0.2881
-1.5229 CHAND SHAARAKA -0.2269
-2.0000 CHAND SHEWAAZY -0.2944
-2.0000 CHAND TANYAA -0.2041
-2.0000 CHAND XAAKEKY -0.2218
-2.0000 CHAND XIZMATY -0.2126
-2.0000 CHAND ZYRAK -0.2430
-0.6576 CHAPDAA </s> -0.3010
-1.6990 CHAPDAA BASHA -0.1761
-1.6990 CHAPDAA BOYAAXCHY -0.2852
-1.6990 CHAPDAA DIRWST -0.2929
-1.6990 CHAPDAA GOSHTFROSH -0.2910
-1.6990 CHAPDAA NACHIN -0.2926
-1.6990 CHAPDAA RRAWISHTY -0.2881
-1.6990 CHAPDAA SHWFER -0.2940
-1.6990 CHAPDAA TANDIRWSTY -0.2926
-1.6990 CHAPDAA TYAA -0.2762
-1.6990 CHAPDAA WAKW -0.2888
-1.6990 CHAPDAA XEZAAN -0.2917
-1.6990 CHAPDAA XORRAAGIRTIN -0.2486
-1.6990 CHAPDAA YAASAA -0.2926
-1.6990 CHAPDAA ZIMAANY -0.2518
-0.7984 CHIRAAYA </s> -0.3010
-1.6435 CHIRAAYA AMRRO -0.2935
-1.6435 CHIRAAYA BAAWK -0.2374
-1.3424 CHIRAAYA BIGRET -0.2326
-1.6435 CHIRAAYA BIXWENAWA -0.2863
-1.6435 CHIRAAYA DAANAA -0.2460
-1.6435 CHIRAAYA DAAPYRA -0.2906
-1.6435 CHIRAAYA DAARISTAANA -0.2863
-1.6435 CHIRAAYA DAPARRIMAWA -0.2910
-1.6435 CHIRAAYA DWWAM -0.2951
-1.6435 CHIRAAYA KAAM -0.2888
-1.6435 CHIRAAYA KAS -0.2863
-1.6435 CHIRAAYA MAAMOSTAA -0.2975
-1.6435 CHIRAAYA SARDAAN -0.2881
-1.6435 CHIRAAYA XAAKEKY -0.2218
-0.8519 CHON </s> -0.3010
-1.8062 CHON BAAPYRIM -0.2139
-1.8062 CHON BAKAARDENET -0.2906
-1.8062 CHON BIZHY -0.2906
-1.8062 CHON DANORRIM -0.2919
-1.8062 CHON DARRWENIN -0.2341
-1.8062 CHON GAYAANDIBWW -0.2906
-1.8062 CHON HALLA -0.2326
-1.8062 CHON HALLDASTIM -0.1845
-1.8062 CHON LA -0.2881
-1.8062 CHON LEDAXWRRET -0.1836
-1.5051 CHON MAAMOSTAA -0.2275
-1.8062 CHON MAAYAWA -0.2852
-1.8062 CHON NWEMAAN -0.2148
-1.8062 CHON RRANG -0.2966
-1.8062 CHON RROZH -0.2982
-1.8062 CHON SAALL -0.2954
-1.8062 CHON SILLAAW -0.1856
-1.8062 CHON TANDIRWSTY -0.2083
-1.8062 CHON WAAYA -0.2919
-1.8062 CHON WLLAATAKAY -0.2919
-1.8062 CHON XOSHDAWE -0.2300
-1.8062 CHON ZYRAK -0.2965
-0.7270 CHWAAR </s> -0.3010
-1.6812 CHWAAR AASINGAR -0.2872
-1.6812 CHWAAR BAYAANY -0.2961
-1.6812 CHWAAR DARROM -0.1691
-1.6812 CHWAAR DAZHYN -0.2285
-1.6812 CHWAAR DWKAAN -0.2966
-1.6812 CHWAAR GWTY -0.2368
-1.3802 CHWAAR KIRD -0.2917
-1.6812 CHWAAR MAAMOSTAA -0.2975
-1.6812 CHWAAR MAAYAWA -0.2852
-1.6812 CHWAAR NAAW -0.2977
-1.6812 CHWAAR PENJ -0.2923
-1.6812 CHWAAR TAMAASHAAM -0.2900
-1.6812 CHWAAR WARBIGRIN -0.2900
-1.6812 CHWAAR XOBAAYY -0.2808
-0.8846 CHWNKA </s> -0.3010
-1.6628 CHWNKA AGAR -0.2919
-1.6628 CHWNKA BAYAANY -0.2139
-1.6628 CHWNKA CHON -0.2942
-1.6628 CHWNKA DAAYK -0.2430
-1.6628 CHWNKA DACHIMA -0.2910
-1.6628 CHWNKA DARAWA -0.2596
-1.6628 CHWNKA DARCHWWY -0.2126
-1.6628 CHWNKA JWAAN -0.2966
-1.6628 CHWNKA KAAT -0.2915
-1.6628 CHWNKA NAADAM -0.2711
-1.6628 CHWNKA QWTAABXAANA -0.2964
-1.6628 CHWNKA RROZH -0.2982
-1.6628 CHWNKA SARTAASH -0.2888
-1.3617 CHWNKA XAAWEN -0.2395
-1.3617 CHWNKA XOSHDAWE -0.2928
-1.0107 CHY </s> -0.3010
-1.9138 CHY AASINGAR -0.2872
-1.9138 CHY BAAWK -0.2374
-1.9138 CHY BIDWEYN -0.2258
-1.9138 CHY BINWWSA -0.2948
-1.9138 CHY BIPIRSIN -0.2932
-1.9138 CHY BWW -0.2948
-1.6128 CHY CH -0.2808
-1.9138 CHY CHAPDAA -0.2923
-1.9138 CHY CHON -0.2942
-1.9138 CHY DIRAXT -0.2407
-1.9138 CHY DOZYYAWA -0.2919
-1.6128 CHY GIRT -0.2913
-1.9138 CHY GWNDEK -0.2272
-1.9138 CHY HALLA -0.2919
-1.9138 CHY HARDWW -0.2460
-1.9138 CHY HASHT -0.2923
-1.9138 CHY HHAZMAAN -0.2963
-1.9138 CHY MAAMOSTAA -0.2975
-1.9138 CHY MAQAST -0.2093
-1.9138 CHY MINDAALL -0.2280
-1.9138 CHY RREZ -0.1703
-1.9138 CHY RRWWNAAKY -0.2964
-1.9138 CHY SAALL -0.2954
-1.9138 CHY SARTAASH -0.2218
-1.9138 CHY SHWENY -0.2906
-1.9138 CHY SILLAAW -0.2863
-1.9138 CHY WRYAA -0.2977
-1.9138 CHY XOSHDAWE -0.2300
-1.9138 CHY XWENDIN -0.2972
-1.9138 CHY YAARY -0.2840
-1.9138 CHY YAKAMIM -0.2915
-0.9294 CHYYA </s> -0.3010
-1.5315 CHYYA AGAR -0.2919
-1.5315 CHYYA BALLAAM -0.2430
-1.5315 CHYYA BIKAYN -0.2341
-1.5315 CHYYA DAM -0.2888
-1.5315 CHYYA HHAZMAAN -0.2963
-1.5315 CHYYA JWAAN -0.2074
-1.5315 CHYYA MALLBANDY -0.2906
-1.5315 CHYYA NAAW -0.2977
-1.5315 CHYYA PENJ -0.2923
-1.5315 CHYYA PEXOSHA -0.2430
-1.5315 CHYYA SHAQAAMAKA -0.2518
-1.5315 CHYYA TANDIRWSTY -0.2083
-1.5315 CHYYA ZYAANYAAN -0.2553
-1.0792 DAA </s> -0.3010
-1.6812 DAA ANJAAMY -0.2888
-1.3802 DAA BAAWK -0.2374
-1.6812 DAA BAAYAKY -0.2926
-1.6812 DAA BAYAANY -0.2139
-1.6812 DAA HAFTA -0.2430
-1.6812 DAA KA -0.2430
-1.6812 DAA KAAM -0.2888
-1.6812 DAA KAS -0.2389
-1.6812 DAA KWRSY -0.2923
-1.6812 DAA LEBWRDIN -0.2888
-1.6812 DAA MAYDAANY -0.2881
-1.6812 DAA NAADAM -0.2711
-1.6812 DAA NAAW -0.2977
-1.6812 DAA NAXOSH -0.2915
-1.6812 DAA NIMWNAY -0.2872
-1.6812 DAA RRANG -0.2966
-1.6812 DAA SAALL -0.2982
-1.6812 DAA TOPAANE -0.2319
-1.6812 DAA YAKDANG -0.2881
-0.6601 DAAHAATWWYN </s> -0.3010
-1.5051 DAAHAATWWYN DAKAA -0.2009
-1.5051 DAAHAATWWYN DIRAXT -0.2929
-1.5051 DAAHAATWWYN GARRAAM -0.2937
-1.5051 DAAHAATWWYN HAMWWMAAN -0.2304
-1.5051 DAAHAATWWYN KWRSY -0.2923
-1.5051 DAAHAATWWYN LEMAAN -0.2944
-1.5051 DAAHAATWWYN POLY -0.2499
-1.5051 DAAHAATWWYN PYROZBE -0.2798
-1.5051 DAAHAATWWYN WENAKAAN -0.2881
-0.9243 DAANAA </s> -0.3010
-1.6232 DAANAA AMRRO -0.2858
-1.6232 DAANAA DAGRIM -0.2958
-1.6232 DAANAA DEM -0.2533
-1.6232 DAANAA DWWRA -0.2919
-1.6232 DAANAA FERDAKAAT -0.2953
-1.3222 DAANAA GHAARDAAN -0.2536
-1.6232 DAANAA HYCH -0.1891
-1.6232 DAANAA LAXOBAAYY -0.2872
-1.6232 DAANAA PANJAA -0.1549
-1.6232 DAANAA PYAAWEKY -0.2863
-1.6232 DAANAA RRAAMAAN -0.2923
-1.6232 DAANAA SAALL -0.2275
-1.6232 DAANAA TANDIRWSTY -0.2083
-1.6232 DAANAA XAAWEN -0.2442
-1.6232 DAANAA ZOR -0.2167
-0.7202 DAAPYRA </s> -0.3010
-1.6232 DAAPYRA AMRRO -0.2935
-1.6232 DAAPYRA CH -0.2016
-1.6232 DAAPYRA DAPARRIMAWA -0.2910
-1.6232 DAAPYRA DWKAAN -0.2183
-1.6232 DAAPYRA GHAARDAAN -0.2619
-1.6232 DAAPYRA GIRT -0.2962
-1.6232 DAAPYRA MAYDAANY -0.2881
-1.6232 DAAPYRA NAAN -0.2968
-1.6232 DAAPYRA RROZH -0.2298
-1.6232 DAAPYRA TANYAA -0.2041
-1.6232 DAAPYRA WLLAATAKAY -0.2919
-1.6232 DAAPYRA XAAWEN -0.2442
-1.6232 DAAPYRA ZAWY -0.2009
-0.9488 DAAR </s> -0.3010
-1.9031 DAAR BAAWK -0.2944
-1.9031 DAAR BYR -0.2571
-1.9031 DAAR CHAND -0.2967
-1.9031 DAAR CHIRAAYA -0.2910
-1.9031 DAAR CHY -0.2564
-1.9031 DAAR DAANAA -0.2460
-1.9031 DAAR DAFROSHET -0.2576
-1.9031 DAAR DIRAXT -0.2929
-1.9031 DAAR DWWAM -0.2447
-1.9031 DAAR FERDAKAAT -0.2527
-1.9031 DAAR FERIMAAN -0.2021
-1.9031 DAAR GWNDEK -0.2872
-1.9031 DAAR HABWW -0.2872
-1.9031 DAAR HALLYKIRD -0.2872
-1.9031 DAAR KAAT -0.2293
-1.9031 DAAR MAQAST -0.2906
-1.9031 DAAR NAADAM -0.2937
-1.9031 DAAR RROZH -0.2982
-1.9031 DAAR RRWWNAAKY -0.2255
-1.9031 DAAR SHA -0.2881
-1.9031 DAAR SHYRYNA -0.2872
-1.9031 DAAR SWWDA -0.2527
-1.9031 DAAR TOPAANE -0.2881
-1.9031 DAAR XAAWEN -0.2969
-1.9031 DAAR XEZAAN -0.2310
-1.9031 DAAR XOBAAYY -0.2910
-1.9031 DAAR XORRAAGIRTIN -0.2486
-1.9031 DAAR XWENDIN -0.2331
-1.9031 DAAR XWSHK -0.2919
-1.9031 DAAR ZOR -0.2968
-1.9031 DAAR ZYAANYAAN -0.2900
-0.6990 DAARISTAANA </s> -0.3010
-1.4771 DAARISTAANA AMAANAY -0.2181
-1.4771 DAARISTAANA BAAPYRIM -0.2139
-1.4771 DAARISTAANA BAAXAKA -0.2910
-1.4771 DAARISTAANA DIRWST -0.2929
-1.4771 DAARISTAANA HAAWRRE -0.2253
-1.4771 DAARISTAANA LEMAAN -0.2944
-1.4771 DAARISTAANA XOMAAN -0.2951
-1.1761 DAARISTAANA ZWW -0.1919
-0.9031 DAARTAASH </s> -0.3010
-1.2041 DAARTAASH ANJAAMY -0.2218
-1.5051 DAARTAASH BASHA -0.2825
-1.5051 DAARTAASH BIGRET -0.2430
-1.5051 DAARTAASH BWW -0.2341
-1.5051 DAARTAASH HAR -0.2872
-1.5051 DAARTAASH NAABYNAAY -0.1919
-1.5051 DAARTAASH SAALL -0.2954
-1.5051 DAARTAASH TANGAANA -0.2863
-1.5051 DAARTAASH XAAWEN -0.2969
-1.5051 DAARTAASH YAARMATY -0.2218
-1.5051 DAARTAASH ZOR -0.2968
-0.8239 DAAWAAY </s> -0.3010
-1.6021 DAAWAAY BASHA -0.1761
-1.6021 DAAWAAY BILLIND -0.2218
-1.6021 DAAWAAY CHYYA -0.2881
-1.6021 DAAWAAY DAHAATAWA -0.2218
-1.3010 DAAWAAY DILGYR -0.2576
-1.6021 DAAWAAY HHAZMAAN -0.2817
-1.6021 DAAWAAY JWAAN -0.2074
-1.6021 DAAWAAY KIRD -0.2417
-1.6021 DAAWAAY MAAMOSTAA -0.2359
-1.6021 DAAWAAY RRAAST -0.2935
-1.6021 DAAWAAY RROZH -0.2982
-1.6021 DAAWAAY SHAARAKA -0.2968
-1.6021 DAAWAAY SHWENY -0.1963
-0.9031 DAAYK </s> -0.3010
-2.1584 DAAYK AW -0.2910
-2.1584 DAAYK BAAWK -0.2944
-2.1584 DAAYK BAAXCHAKAY -0.2868
-2.1584 DAAYK BASHA -0.1761
-2.1584 DAAYK BASWWDA -0.2906
-2.1584 DAAYK BAYAANY -0.2961
-2.1584 DAAYK BINARRATY -0.2258
-2.1584 DAAYK BIXWENYN -0.2258
-2.1584 DAAYK CHY -0.2957
-2.1584 DAAYK CHYYA -0.2881
-2.1584 DAAYK DAAPYRA -0.2906
-2.1584 DAAYK DAARISTAANA -0.2863
-2.1584 DAAYK DAHAATAWA -0.2218
-2.1584 DAAYK DARBAAZY -0.2467
-2.1584 DAAYK DARCHWWY -0.2126
-2.1584 DAAYK DIDAAN -0.2852
-2.1584 DAAYK FERDAKAAT -0.2953
-2.1584 DAAYK GASHA -0.2926
-2.1584 DAAYK GIRT -0.2962
-2.1584 DAAYK GWNDEK -0.2872
-2.1584 DAAYK HAMWWMAAN -0.2900
-2.1584 DAAYK HYCH -0.2910
-2.1584 DAAYK JEYA -0.2900
-1.8573 DAAYK JWAAN -0.2875
-2.1584 DAAYK KAANY -0.2071
-2.1584 DAAYK KAATE -0.2942
-2.1584 DAAYK KAS -0.2389
-2.1584 DAAYK MALLBANDY -0.2906
-2.1584 DAAYK MIN -0.2910
-2.1584 DAAYK MINDAALL -0.2958
-2.1584 DAAYK NIZYK -0.2929
-2.1584 DAAYK NWSYN -0.2486
-2.1584 DAAYK PARY -0.2915
-1.8573 DAAYK PENJ -0.2355
-2.1584 DAAYK PIZYSHK -0.2663
-2.1584 DAAYK POLY -0.2499
-2.1584 DAAYK PSHWWDAA -0.2968
-2.1584 DAAYK RRWWNAAKY -0.2964
-1.8573 DAAYK SAAM -0.2840
-2.1584 DAAYK SHAARAKA -0.2369
-2.1584 DAAYK SHAAXY -0.2881
-2.1584 DAAYK SIPY -0.1691
-2.1584 DAAYK TAMAASHAAM -0.2900
-2.1584 DAAYK TO -0.2906
-2.1584 DAAYK XAAWEN -0.2969
-2.1584 DAAYK XEZAAN -0.2917
-2.1584 DAAYK XOMAAN -0.2380
-2.1584 DAAYK XWENDIN -0.2991
-2.1584 DAAYK YAASAA -0.2926
-2.1584 DAAYK ZOR -0.2968
-2.1584 DAAYK ZYRAK -0.2430
-0.9031 DABIRZHENET </s> -0.3010
-1.6021 DABIRZHENET AGAR -0.2919
-1.6021 DABIRZHENET BAAXCHAKAY -0.2940
-1.6021 DABIRZHENET BAYAANY -0.2961
-1.6021 DABIRZHENET BYNY -0.2963
-1.6021 DABIRZHENET DAARISTAANA -0.2041
-1.6021 DABIRZHENET DAGRIM -0.2280
-1.6021 DABIRZHENET DAHAATAWA -0.2863
-1.6021 DABIRZHENET DAZHYN -0.2926
-1.6021 DABIRZHENET DIRWST -0.2929
-1.6021 DABIRZHENET DYWAAR -0.2923
-1.6021 DABIRZHENET HYWAAY -0.2253
-1.6021 DABIRZHENET RREHHAAN -0.2940
-1.6021 DABIRZHENET SHWENY -0.2906
-1.6021 DABIRZHENET SIPY -0.1691
-1.6021 DABIRZHENET XOMAAN -0.2951
-1.0414 DACHIMA </s> -0.3010
-1.6435 DACHIMA AW -0.2374
-1.6435 DACHIMA BAAYAKY -0.2571
-1.6435 DACHIMA BILLIND -0.2962
-1.6435 DACHIMA DAZHYN -0.2285
-1.6435 DACHIMA FERDAKAAT -0.2527
-1.6435 DACHIMA GWNDEK -0.2872
-1.6435 DACHIMA HAAWRRE -0.2923
-1.6435 DACHIMA KOMPYWTAR -0.2126
-1.6435 DACHIMA LATAMANY -0.2894
-1.6435 DACHIMA MIROV -0.2906
-1.6435 DACHIMA NAAW -0.2943
-1.6435 DACHIMA PRR -0.2840
-1.6435 DACHIMA SHEWAAZY -0.2374
-1.6435 DACHIMA WRYAA -0.2285
-1.6435 DACHIMA XWAARAWA -0.1829
-1.6435 DACHIMA YAARY -0.2840
-1.6435 DACHIMA YAASAA -0.2185
-1.6435 DACHIMA YAKDANG -0.2467
-0.9031 DADAATE </s> -0.3010
-1.9031 DADAATE AMAANAY -0.2817
-1.9031 DADAATE BAAPYRIM -0.2139
-1.9031 DADAATE BAAWK -0.2944
-1.9031 DADAATE BWW -0.2884
-1.9031 DADAATE BYR -0.2571
-1.9031 DADAATE CHAARADAKAAT -0.2218
-1.9031 DADAATE DAA -0.2632
-1.9031 DADAATE DAKAA -0.2009
-1.9031 DADAATE DIRWST -0.2929
-1.9031 DADAATE GAYAANDIBWW -0.2218
-1.9031 DADAATE HAR -0.2872
-1.9031 DADAATE JWAAN -0.2074
-1.9031 DADAATE KAATE -0.2942
-1.9031 DADAATE KWRSY -0.2923
-1.9031 DADAATE LAAY -0.2863
-1.9031 DADAATE MAAMOSTAA -0.2975
-1.9031 DADAATE NAADAM -0.2937
-1.9031 DADAATE PARY -0.2915
-1.9031 DADAATE PIZYSHK -0.2663
-1.9031 DADAATE QWTAABXAANA -0.2144
-1.9031 DADAATE RRANG -0.2966
-1.9031 DADAATE RRWWNAAKY -0.2255
-1.9031 DADAATE SHA -0.2881
-1.9031 DADAATE SIPY -0.1691
-1.9031 DADAATE TANYAA -0.2923
-1.9031 DADAATE TYAA -0.2762
-1.9031 DADAATE XAAWEN -0.2969
-1.9031 DADAATE XOY -0.2218
-1.9031 DADAATE XWENDIN -0.2331
-1.9031 DADAATE YAARY -0.2083
-1.0212 DAFROSHET </s> -0.3010
-1.6232 DAFROSHET ANJAAMY -0.2888
-1.6232 DAFROSHET DAA -0.2919
-1.6232 DAFROSHET DAZHYN -0.2285
-1.6232 DAFROSHET DIRAXT -0.2929
-1.6232 DAFROSHET FERDAKAAT -0.2953
-1.6232 DAFROSHET GYAA -0.2872
-1.6232 DAFROSHET KAAT -0.2915
-1.6232 DAFROSHET LEBWRDIN -0.2888
-1.6232 DAFROSHET MAAMOSTAA -0.2975
-1.6232 DAFROSHET SHA -0.2881
-1.6232 DAFROSHET WRYAA -0.2977
-1.6232 DAFROSHET XAAKEKY -0.2218
-1.6232 DAFROSHET XEZAAN -0.2310
-1.6232 DAFROSHET ZHYAAN -0.2355
-1.3222 DAFROSHET ZWW -0.1919
-1.6232 DAFROSHET ZYAANYAAN -0.2553
-0.8103 DAGRIM </s> -0.3010
-1.9243 DAGRIM ANJAAMY -0.2361
-1.9243 DAGRIM BICHYNA -0.1946
-1.9243 DAGRIM BIZHY -0.2576
-1.9243 DAGRIM DAA -0.2632
-1.9243 DAGRIM DARCHWWY -0.2126
-1.9243 DAGRIM DOZYYAWA -0.2919
-1.9243 DAGRIM DWKAAN -0.2183
-1.9243 DAGRIM DWWAM -0.2951
-1.9243 DAGRIM DWWRA -0.2919
-1.9243 DAGRIM GOSHT -0.2910
-1.9243 DAGRIM HAFTA -0.2430
-1.9243 DAGRIM HASHT -0.2923
-1.9243 DAGRIM HAAWRRE -0.2253
-1.9243 DAGRIM JWAAN -0.2074
-1.9243 DAGRIM KAAT -0.2915
-1.9243 DAGRIM KIRD -0.2964
-1.9243 DAGRIM NAAN -0.2968
-1.9243 DAGRIM PIRSYAAR -0.2894
-1.9243 DAGRIM RRAAMAAN -0.2923
-1.9243 DAGRIM RREGADAA -0.2906
-1.9243 DAGRIM SAWZ -0.2071
-1.9243 DAGRIM SHAARAKA -0.2369
-1.9243 DAGRIM SHEWAAZY -0.2374
-1.9243 DAGRIM SWWDA -0.2953
-1.4472 DAGRIM XWENDIN -0.2933
-1.9243 DAGRIM ZARD -0.2872
-1.9243 DAGRIM ZHYAAN -0.2355
-0.7782 DAHAATAWA </s> -0.3010
-1.4771 DAHAATAWA AGAR -0.2533
-1.4771 DAHAATAWA BAAXCHAKAY -0.2940
-1.4771 DAHAATAWA BINWWSA -0.2118
-1.4771 DAHAATAWA CHYYA -0.2881
-1.4771 DAHAATAWA HALLA -0.2919
-1.4771 DAHAATAWA MAAMOSTAA -0.2359
-1.4771 DAHAATAWA NAAW -0.2977
-1.4771 DAHAATAWA PYAAWEKY -0.2863
-1.4771 DAHAATAWA SHAMMAYA -0.2906
-1.4771 DAHAATAWA XWENDIN -0.2991
-0.6864 DAKAA </s> -0.3010
-1.5315 DAKAA AAMEREKY -0.2915
-1.5315 DAKAA AMRRO -0.2452
-1.5315 DAKAA BIPIRSIN -0.2932
-1.5315 DAKAA BWW -0.2341
-1.5315 DAKAA DABIRZHENET -0.2900
-1.5315 DAKAA DARRWENIN -0.2341
-1.5315 DAKAA FERIMAAN -0.2929
-1.5315 DAKAA HAMWWMAAN -0.2900
-1.5315 DAKAA KAATE -0.2942
-1.5315 DAKAA OTOMBELAKA -0.2553
-0.7202 DAKAN </s> -0.3010
-1.9243 DAKAN AM -0.1761
-1.9243 DAKAN AMRRO -0.2452
-1.9243 DAKAN BAASH -0.2881
-1.9243 DAKAN BYNY -0.2403
-1.9243 DAKAN CH -0.2016
-1.9243 DAKAN DAKAWET -0.1919
-1.9243 DAKAN DAM -0.2888
-1.9243 DAKAN DIDAAN -0.2852
-1.9243 DAKAN DIRAXT -0.2407
-1.9243 DAKAN GIZH -0.2888
-1.9243 DAKAN HARDWW -0.2906
-1.9243 DAKAN HY -0.2747
-1.9243 DAKAN KIRD -0.2417
-1.9243 DAKAN KWRSY -0.2923
-1.9243 DAKAN LEBGRIN -0.2825
-1.9243 DAKAN MAALLY -0.2197
-1.9243 DAKAN PARY -0.2181
-1.9243 DAKAN RRWWNAAKY -0.2255
-1.9243 DAKAN SWWDA -0.2953
-1.9243 DAKAN TANDIRWSTY -0.2926
-1.9243 DAKAN WLLAATAKAY -0.2326
-1.9243 DAKAN WRYAA -0.2977
-1.9243 DAKAN WSHA -0.2956
-1.9243 DAKAN XORRAAGIRTIN -0.2486
-1.9243 DAKAN XWENDIN -0.2991
-1.9243 DAKAN YAARY -0.2083
-0.6532 DAKAWET </s> -0.3010
-1.5563 DAKAWET BYR -0.2926
-1.5563 DAKAWET HALLDASTIM -0.1845
-1.5563 DAKAWET LA -0.2881
-1.5563 DAKAWET LAAY -0.2863
-1.5563 DAKAWET LEDAXWRRET -0.1836
-1.5563 DAKAWET MAQAST -0.2093
-1.5563 DAKAWET RROZH -0.2982
-1.5563 DAKAWET WENAKAAN -0.2319
-1.5563 DAKAWET XEZAAN -0.2310
-1.5563 DAKAWET ZYAANYAAN -0.2553
-0.7112 DAM </s> -0.3010
-1.5563 DAM BIZHY -0.2906
-1.5563 DAM DAAYK -0.2980
-1.5563 DAM GWNDEK -0.2872
-1.5563 DAM KAAM -0.2499
-1.5563 DAM LEBWRDIN -0.2632
-1.5563 DAM MAAMOSTAA -0.2359
-1.5563 DAM RRANG -0.2966
-1.5563 DAM RRWWNAAKY -0.2964
-1.5563 DAM SHAMMAYA -0.2906
-1.5563 DAM XOSHDAWE -0.2300
-1.5563 DAM ZWW -0.2888
-1.0792 DANORRIM </s> -0.3010
-1.6812 DANORRIM BAA -0.2527
-1.6812 DANORRIM BASHA -0.1761
-1.6812 DANORRIM BAYAANY -0.2961
-1.6812 DANORRIM BILLIND -0.2218
-1.6812 DANORRIM BYNY -0.2963
-1.6812 DANORRIM CHAPDAA -0.1931
-1.6812 DANORRIM CHWAAR -0.2919
-1.6812 DANORRIM DAAYK -0.2980
-1.6812 DANORRIM DAYPAAREZIM -0.2906
-1.6812 DANORRIM DEM -0.2919
-1.6812 DANORRIM DWKAAN -0.2183
-1.6812 DANORRIM HALLYKIRD -0.2872
-1.6812 DANORRIM KWRSY -0.2923
-1.6812 DANORRIM NAXOSH -0.2915
-1.6812 DANORRIM POLAKAT -0.2304
-1.6812 DANORRIM RREZ -0.1703
-1.6812 DANORRIM SAWZ -0.2888
-1.6812 DANORRIM SWWDA -0.2953
-1.6812 DANORRIM ZHYAAN -0.2923
-1.6812 DANORRIM ZYAANYAAN -0.2900
-0.7984 DAPARRIMAWA </s> -0.3010
-1.6435 DAPARRIMAWA BAAWK -0.2944
-1.6435 DAPARRIMAWA CHAAWIM -0.2218
-1.3424 DAPARRIMAWA DAAR -0.2900
-1.6435 DAPARRIMAWA DACHIMA -0.2910
-1.6435 DAPARRIMAWA DAKAWET -0.1919
-1.6435 DAPARRIMAWA GAYAANDIBWW -0.2218
-1.6435 DAPARRIMAWA GWEBIGRA -0.2960
-1.6435 DAPARRIMAWA LA -0.2319
-1.6435 DAPARRIMAWA MIN -0.2910
-1.6435 DAPARRIMAWA PYAAWEKY -0.2711
-1.6435 DAPARRIMAWA SHEWAAZY -0.2374
-1.6435 DAPARRIMAWA SWPAASY -0.2730
-1.6435 DAPARRIMAWA WRYAA -0.2285
-1.6435 DAPARRIMAWA ZOR -0.2968
-1.0414 DARAWA </s> -0.3010
-1.6435 DARAWA AMRRO -0.2935
-1.6435 DARAWA DAKAA -0.2009
-1.6435 DARAWA DAKAWET -0.1919
-1.6435 DARAWA DAPARRIMAWA -0.2910
-1.6435 DARAWA DOZYYAWA -0.2919
-1.6435 DARAWA GASHA -0.2968
-1.6435 DARAWA HAR -0.2430
-1.6435 DARAWA KAS -0.2863
-1.6435 DARAWA MAAMOSTAA -0.2359
-1.6435 DARAWA MALLBANDY -0.2093
-1.6435 DARAWA MIROV -0.2906
-1.6435 DARAWA NAMAAM -0.2894
-1.6435 DARAWA PIZYSHK -0.2954
-1.6435 DARAWA TWAANY -0.2900
-1.6435 DARAWA WAAYA -0.2632
-1.6435 DARAWA XOBAAYY -0.2258
-1.6435 DARAWA XWENDIN -0.2991
-1.6435 DARAWA ZHYAAN -0.2923
-0.9294 DARBAAZY </s> -0.3010
-1.5315 DARBAAZY AMRRO -0.2452
-1.5315 DARBAAZY BAKAARDENET -0.2906
-1.5315 DARBAAZY BINARRATY -0.2258
-1.5315 DARBAAZY DAAPYRA -0.2093
-1.5315 DARBAAZY DAAR -0.2956
-1.5315 DARBAAZY DAAYK -0.2980
-1.5315 DARBAAZY DANORRIM -0.2919
-1.5315 DARBAAZY DASRAWE -0.2863
-1.5315 DARBAAZY HABWW -0.2272
-1.5315 DARBAAZY HYWAAY -0.2253
-1.5315 DARBAAZY NABWW -0.2478
-1.5315 DARBAAZY RRWWNAAKY -0.2964
-1.5315 DARBAAZY SHAARAKA -0.2369
-0.7347 DARCHWWY </s> -0.3010
-1.5798 DARCHWWY AMRRO -0.2452
-1.5798 DARCHWWY BOYAAXCHY -0.2156
-1.5798 DARCHWWY BYNY -0.2963
-1.5798 DARCHWWY DAAYK -0.2980
-1.5798 DARCHWWY DAKAN -0.2958
-1.5798 DARCHWWY DAYPAAREZIM -0.2906
-1.5798 DARCHWWY DWKAAN -0.2966
-1.5798 DARCHWWY FERDAKAAT -0.2527
-1.5798 DARCHWWY GASHA -0.2430
-1.5798 DARCHWWY GHAARDAAN -0.2619
-1.5798 DARCHWWY JWAAN -0.2966
-1.5798 DARCHWWY MAQAST -0.2906
-0.7782 DARGAA </s> -0.3010
-1.6232 DARGAA AGAR -0.2919
-1.6232 DARGAA ANDAAMAANY -0.2894
-1.6232 DARGAA BIKAYN -0.2798
-1.6232 DARGAA CHAAWIM -0.2888
-1.6232 DARGAA CHWAAR -0.2109
-1.6232 DARGAA DAAHAATWWYN -0.2872
-1.6232 DARGAA DARROM -0.1691
-1.6232 DARGAA MINDAALL -0.2280
-1.6232 DARGAA PARY -0.2915
-1.6232 DARGAA RREZ -0.1703
-1.6232 DARGAA SHAARAKA -0.2968
-1.6232 DARGAA SHEWAAZY -0.2944
-1.6232 DARGAA TWAANY -0.2900
-1.6232 DARGAA ZWW -0.2888
-0.5819 DARROM </s> -0.3010
-1.6232 DARROM AMAANAY -0.2915
-1.6232 DARROM BAYAANY -0.2139
-1.6232 DARROM DAAWAAY -0.2900
-1.6232 DARROM FERDAKAAT -0.2953
-1.6232 DARROM LEMAAN -0.2139
-1.6232 DARROM NAAW -0.2943
-1.3222 DARROM SAALL -0.2896
-1.6232 DARROM SHAARAKA -0.2968
-1.6232 DARROM TWAANY -0.2900
-0.8451 DARRWENIN </s> -0.3010
-1.6232 DARRWENIN CHAAWIM -0.2218
-1.6232 DARRWENIN CHY -0.2957
-1.6232 DARRWENIN DAGRIM -0.2958
-1.6232 DARRWENIN GIRT -0.2962
-1.6232 DARRWENIN GOSHTFROSH -0.2374
-1.6232 DARRWENIN JEYA -0.2304
-1.6232 DARRWENIN KWRDISTAAN -0.2139
-1.6232 DARRWENIN RRANG -0.2966
-1.3222 DARRWENIN SAALL -0.2241
-1.6232 DARRWENIN SHA -0.2881
-1.6232 DARRWENIN TOPAANE -0.2881
-1.6232 DARRWENIN TWND -0.2285
-1.3222 DARRWENIN XWENDIN -0.2309
-1.0000 DASHOM </s> -0.3010
-1.4771 DASHOM ANDAAMAANY -0.2894
-1.4771 DASHOM BAA -0.2775
-1.4771 DASHOM BIDWEYN -0.2910
-1.4771 DASHOM DAGRIM -0.2958
-1.4771 DASHOM FERDAKAAT -0.2953
-1.4771 DASHOM HHAZMAAN -0.2817
-1.4771 DASHOM HOSHA -0.2355
-1.4771 DASHOM LAGALL -0.2906
-1.4771 DASHOM NIZYK -0.2929
-1.4771 DASHOM PAAYTAXTY -0.2808
-1.4771 DASHOM RRAAMAAN -0.2923
-1.4771 DASHOM TAMAASHAAM -0.2788
-0.7782 DASRAWE </s> -0.3010
-1.4771 DASRAWE BIDWEYN -0.2910
-1.4771 DASRAWE BO -0.2919
-1.4771 DASRAWE BWW -0.2341
-1.4771 DASRAWE DAHAATAWA -0.2863
-1.4771 DASRAWE GIRT -0.2962
-1.4771 DASRAWE KAANY -0.2071
-1.4771 DASRAWE PENWWS -0.2175
-1.4771 DASRAWE PYROZBE -0.2906
-1.4771 DASRAWE RRANG -0.2289
-1.4771 DASRAWE TYAA -0.2888
-0.8451 DASTY </s> -0.3010
-1.4472 DASTY BILLIND -0.2962
-1.4472 DASTY CHAPDAA -0.2923
-1.4472 DASTY DACHIMA -0.2910
-1.4472 DASTY GWEBIGRA -0.2178
-1.4472 DASTY LAAY -0.2863
-1.4472 DASTY NAAW -0.2977
-1.4472 DASTY RRANG -0.2966
-1.4472 DASTY SHWENY -0.1963
-1.4472 DASTY TANGAANA -0.2863
-1.4472 DASTY WRYAA -0.2977
-0.6232 DAYPAAREZIM </s> -0.3010
-1.6232 DAYPAAREZIM BIKAAT -0.1761
-1.6232 DAYPAAREZIM BIXWENYN -0.2910
-1.6232 DAYPAAREZIM KOMPYWTAR -0.2126
-1.6232 DAYPAAREZIM MINDAALL -0.2280
-1.6232 DAYPAAREZIM POLY -0.2929
-1.6232 DAYPAAREZIM SHWFER -0.2940
-1.6232 DAYPAAREZIM SILLAAW -0.1856
-1.6232 DAYPAAREZIM WRYAA -0.2285
-1.6232 DAYPAAREZIM XEZAAN -0.2310
-1.6232 DAYPAAREZIM YAKAMIM -0.2511
-1.6232 DAYPAAREZIM ZARD -0.2872
-0.8129 DAZHYN </s> -0.3010
-1.7160 DAZHYN AMAANAY -0.2915
-1.7160 DAZHYN AMRRO -0.2452
-1.7160 DAZHYN BIPIRSIN -0.2852
-1.7160 DAZHYN BOYAAXCHY -0.2156
-1.7160 DAZHYN BYNY -0.2963
-1.7160 DAZHYN HAMWWMAAN -0.2304
-1.7160 DAZHYN JWAAN -0.2074
-1.7160 DAZHYN JWTYAAR -0.2825
-1.4150 DAZHYN KOMPYWTAR -0.1984
-1.7160 DAZHYN MAAMOSTAA -0.2975
-1.7160 DAZHYN NAAN -0.2418
-1.4150 DAZHYN NWEMAAN -0.2041
-1.7160 DAZHYN PYROZBE -0.2798
-1.7160 DAZHYN RREZ -0.1703
-1.7160 DAZHYN SARATAAY -0.2906
-1.7160 DAZHYN WRYAA -0.2977
-0.9823 DEM </s> -0.3010
-1.6812 DEM AAMEREKY -0.2511
-1.6812 DEM AAZAABYN -0.2894
-1.6812 DEM AMAANAY -0.2915
-1.6812 DEM BIDWEYN -0.2910
-1.6812 DEM BYNY -0.2403
-1.6812 DEM DAKAN -0.2958
-1.6812 DEM DWKAAN -0.2183
-1.6812 DEM MIN -0.2139
-1.6812 DEM MIROV -0.2906
-1.6812 DEM NAAW -0.2324
-1.6812 DEM PEXOSHA -0.2430
-1.6812 DEM RRWWNAAKY -0.2964
-1.6812 DEM SARATAAY -0.2460
-1.6812 DEM SHWFER -0.2940
-1.6812 DEM SWWDA -0.2953
-1.6812 DEM XAAWEN -0.2969
-1.6812 DEM XOBAAYY -0.2258
-1.6812 DEM XWENDIN -0.2972
-1.6812 DEM YAASAA -0.2926
-0.8451 DIDAAN </s> -0.3010
-1.4472 DIDAAN CHWAAR -0.2109
-1.4472 DIDAAN DAAPYRA -0.2093
-1.4472 DIDAAN DAAWAAY -0.2304
-1.4472 DIDAAN KAATE -0.2942
-1.4472 DIDAAN MAQAST -0.2093
-1.4472 DIDAAN NACHIN -0.2926
-1.4472 DIDAAN PEXOSHA -0.2430
-1.4472 DIDAAN WAAYA -0.2919
-1.4472 DIDAAN WSHA -0.1973
-1.4472 DIDAAN ZWW -0.2071
-1.1461 DILGYR </s> -0.3010
-1.6232 DILGYR BIKAYN -0.2798
-1.6232 DILGYR BWW -0.2948
-1.6232 DILGYR CHAPDAA -0.1931
-1.6232 DILGYR DAAYK -0.2980
-1.6232 DILGYR DARAWA -0.2910
-1.6232 DILGYR DARROM -0.2906
-1.6232 DILGYR DARRWENIN -0.2798
-1.6232 DILGYR KAAT -0.2915
-1.6232 DILGYR MIN -0.2139
-1.6232 DILGYR NAAW -0.2324
-1.6232 DILGYR RRAAYALLY -0.2596
-1.6232 DILGYR RREHHAAN -0.2940
-1.6232 DILGYR SHAARAKA -0.2369
-1.6232 DILGYR TANDIRWSTY -0.2083
-1.6232 DILGYR TANYAA -0.2041
-1.6232 DILGYR XOSHDAWE -0.2300
-1.6232 DILGYR YAARMATY -0.2919
-1.6232 DILGYR ZHYAAN -0.2355
-1.0000 DILL </s> -0.3010
-1.4771 DILL BIPIRSIN -0.2932
-1.4771 DILL CHY -0.2957
-1.4771 DILL DAKAN -0.2093
-1.4771 DILL DILL -0.2863
-1.4771 DILL GIZH -0.2361
-1.4771 DILL MAAYAWA -0.2852
-1.4771 DILL OTOMBELAKA -0.2900
-1.4771 DILL RRAAMAAN -0.2355
-1.4771 DILL RREGADAA -0.2576
-1.4771 DILL RREZ -0.1703
-1.4771 DILL WARBIGRIN -0.2900
-1.4771 DILL WSHA -0.1973
-0.8873 DIRAXT </s> -0.3010
-1.7324 DIRAXT AM -0.1761
-1.7324 DIRAXT AMRRO -0.2452
-1.7324 DIRAXT AW -0.2910
-1.7324 DIRAXT BINWWSA -0.2118
-1.7324 DIRAXT DAKAWET -0.1919
-1.7324 DIRAXT DARBAAZY -0.2881
-1.7324 DIRAXT HALLPARRYN -0.2894
-1.7324 DIRAXT HYWAAY -0.2253
-1.7324 DIRAXT KIRD -0.2917
-1.7324 DIRAXT LEDAXWRRET -0.2894
-1.7324 DIRAXT NAAW -0.2324
-1.7324 DIRAXT PIZYSHK -0.2954
-1.7324 DIRAXT RRAAST -0.2935
-1.7324 DIRAXT RREHHAAN -0.2645
-1.7324 DIRAXT SAALL -0.2982
-1.7324 DIRAXT SAWZ -0.2071
-1.7324 DIRAXT XAAWEN -0.2969
-1.7324 DIRAXT XIZMATY -0.2894
-1.7324 DIRAXT YAARMATY -0.2218
-1.7324 DIRAXT ZIMAANY -0.2518
-1.0334 DIRWST </s> -0.3010
-1.7324 DIRWST AM -0.1761
-1.7324 DIRWST AMAANAY -0.2915
-1.7324 DIRWST BAAXAKA -0.2374
-1.7324 DIRWST CHAARADAKAAT -0.2218
-1.7324 DIRWST DAAR -0.2956
-1.7324 DIRWST DAAYK -0.2980
-1.7324 DIRWST DAKAN -0.2093
-1.7324 DIRWST GAMA -0.1891
-1.7324 DIRWST HARDWW -0.2460
-1.7324 DIRWST NAXOSH -0.2293
-1.7324 DIRWST PANJARA -0.2576
-1.7324 DIRWST RROZH -0.2298
-1.7324 DIRWST SAALL -0.2982
-1.7324 DIRWST SARATAAY -0.2460
-1.7324 DIRWST SHAAXY -0.2881
-1.7324 DIRWST SILLAAW -0.1856
-1.7324 DIRWST SWWDA -0.2953
-1.7324 DIRWST TANDIRWSTY -0.2083
-1.7324 DIRWST YAKAMIM -0.2915
-1.7324 DIRWST ZARD -0.2872
-1.7324 DIRWST ZOR -0.2167
-1.7324 DIRWST ZYRAK -0.2430
-0.9031 DOZYYAWA </s> -0.3010
-1.6812 DOZYYAWA BAKAARDENET -0.2906
-1.6812 DOZYYAWA BWW -0.2341
-1.3802 DOZYYAWA DADAATE -0.2368
-1.6812 DOZYYAWA DAZHYN -0.2840
-1.3802 DOZYYAWA GARRAAM -0.2788
-1.6812 DOZYYAWA HALLDASTIM -0.1845
-1.6812 DOZYYAWA HAAWRRE -0.2967
-1.6812 DOZYYAWA JWTYAAR -0.2825
-1.6812 DOZYYAWA KWRRE -0.2460
-1.6812 DOZYYAWA LAGALL -0.2906
-1.6812 DOZYYAWA NACHIN -0.2926
-1.6812 DOZYYAWA SAALL -0.2982
-1.6812 DOZYYAWA SARDAAN -0.2319
-1.6812 DOZYYAWA SHAAXY -0.2881
-1.3802 DOZYYAWA YAASAA -0.2185
-0.7608 DWKAAN </s> -0.3010
-1.9912 DWKAAN BAA -0.2527
-1.9912 DWKAAN BAAXCHAKAY -0.2162
-1.9912 DWKAAN BICHYNA -0.2915
-1.6902 DWKAAN CHON -0.2272
-1.9912 DWKAAN DAAPYRA -0.2093
-1.9912 DWKAAN DAARTAASH -0.2872
-1.9912 DWKAAN DAFROSHET -0.2906
-1.9912 DWKAAN DAGRIM -0.2280
-1.9912 DWKAAN DARGAA -0.2218
-1.9912 DWKAAN DWKAAN -0.2966
-1.9912 DWKAAN HALLDASTIM -0.1845
-1.9912 DWKAAN HALLYKIRD -0.2872
-1.9912 DWKAAN HYWAAY -0.2923
-1.9912 DWKAAN KAAT -0.2293
-1.9912 DWKAAN KWRRE -0.2460
-1.6902 DWKAAN MAAMOSTAA -0.2902
-1.6902 DWKAAN NAAN -0.2418
-1.9912 DWKAAN OTOMBELAKA -0.2553
-1.9912 DWKAAN PAAYTAXTY -0.1891
-1.9912 DWKAAN PANJAA -0.2852
-1.9912 DWKAAN PEY -0.2452
-1.9912 DWKAAN PIZYSHK -0.2954
-1.9912 DWKAAN QWTAABXAANA -0.2964
-1.9912 DWKAAN RRWWNAAKY -0.2964
-1.9912 DWKAAN SAALL -0.2275
-1.9912 DWKAAN TWAANY -0.2900
-1.9912 DWKAAN WRYAA -0.2977
-1.9912 DWKAAN YAASAA -0.2926
-1.9912 DWKAAN ZOR -0.2167
-0.9150 DWWAM </s> -0.3010
-1.8692 DWWAM AMAANAY -0.2181
-1.8692 DWWAM BINWWSA -0.2118
-1.8692 DWWAM CHWNKA -0.2403
-1.5682 DWWAM DAKAWET -0.1761
-1.8692 DWWAM DANORRIM -0.2919
-1.8692 DWWAM DARAWA -0.2910
-1.8692 DWWAM DARRWENIN -0.2798
-1.8692 DWWAM DWKAAN -0.2183
-1.8692 DWWAM DWWAM -0.2447
-1.8692 DWWAM DWWRA -0.2919
-1.8692 DWWAM GWTY -0.2956
-1.8692 DWWAM HAFTA -0.2900
-1.8692 DWWAM HALLDASTIM -0.2881
-1.8692 DWWAM KALWPALY -0.2430
-1.8692 DWWAM MINDAALL -0.2958
-1.8692 DWWAM NAAN -0.2968
-1.8692 DWWAM PENWWS -0.2900
-1.8692 DWWAM PYAAWEKY -0.2711
-1.8692 DWWAM QWTAABXAANA -0.2144
-1.8692 DWWAM RREGADAA -0.2906
-1.8692 DWWAM RROZH -0.2982
-1.8692 DWWAM SARATAAY -0.2906
-1.5682 DWWAM WLLAATAKAY -0.2825
-1.8692 DWWAM XAAKEKY -0.2825
-1.8692 DWWAM XOSHDAWE -0.2300
-1.8692 DWWAM YAARY -0.2840
-0.9823 DWWRA </s> -0.3010
-1.6812 DWWRA ANDAAMAANY -0.2894
-1.6812 DWWRA BIKAAT -0.1761
-1.6812 DWWRA BIKAYN -0.2906
-1.6812 DWWRA BILLIND -0.2218
-1.6812 DWWRA BIXWENYN -0.2258
-1.6812 DWWRA BYNY -0.2403
-1.6812 DWWRA DAAR -0.2956
-1.6812 DWWRA DAGRIM -0.2958
-1.6812 DWWRA DARGAA -0.2218
-1.6812 DWWRA HAWLER -0.2788
-1.6812 DWWRA JEYA -0.2900
-1.6812 DWWRA NWSYN -0.2910
-1.6812 DWWRA RRAAYALLY -0.2596
-1.3802 DWWRA WARBIGRIN -0.2788
-1.6812 DWWRA XOMAAN -0.2380
-1.6812 DWWRA XWENDIN -0.2991
-1.6812 DWWRA YAARMATY -0.2919
-1.6812 DWWRA ZOR -0.2167
-1.0000 DYWAAR </s> -0.3010
-1.6990 DYWAAR BAA -0.2775
-1.6990 DYWAAR BASAR -0.2906
-1.6990 DYWAAR DAKAWET -0.1919
-1.6990 DYWAAR DIRWST -0.2929
-1.6990 DYWAAR GAAZINDAY -0.2218
-1.6990 DYWAAR GWLL -0.2285
-1.3979 DYWAAR HYCH -0.1761
-1.6990 DYWAAR HYWAAY -0.2923
-1.6990 DYWAAR MAAMOSTAA -0.2359
-1.6990 DYWAAR PYROZBE -0.2906
-1.6990 DYWAAR QWTAABXAANA -0.2917
-1.6990 DYWAAR SHAARAKA -0.2369
-1.6990 DYWAAR SHEWAAZY -0.2374
-1.6990 DYWAAR SWPAASY -0.2430
-1.3979 DYWAAR TANDIRWSTY -0.1978
-1.6990 DYWAAR XAAWEN -0.2442
-1.6990 DYWAAR XEZAAN -0.2964
-1.6990 DYWAAR ZOR -0.2968
-0.9777 FERDAKAAT </s> -0.3010
-1.8808 FERDAKAAT AAZAABYN -0.2398
-1.5798 FERDAKAAT BASWWDA -0.2798
-1.8808 FERDAKAAT BIRAAT -0.2888
-1.8808 FERDAKAAT CHWAAR -0.2109
-1.8808 FERDAKAAT DABIRZHENET -0.2430
-1.8808 FERDAKAAT DACHIMA -0.2596
-1.8808 FERDAKAAT DADAATE -0.2430
-1.8808 FERDAKAAT DASRAWE -0.2863
-1.8808 FERDAKAAT DIDAAN -0.2341
-1.8808 FERDAKAAT DILL -0.2553
-1.8808 FERDAKAAT DWWAM -0.2951
-1.8808 FERDAKAAT HABWW -0.2272
-1.8808 FERDAKAAT HAMWWMAAN -0.2304
-1.8808 FERDAKAAT KWRSY -0.2923
-1.8808 FERDAKAAT LEBGRIN -0.2825
-1.8808 FERDAKAAT NAABYNAAY -0.2888
-1.8808 FERDAKAAT NAAN -0.2418
-1.8808 FERDAKAAT NAAW -0.2324
-1.5798 FERDAKAAT NABWW -0.2840
-1.8808 FERDAKAAT PIZYSHK -0.2897
-1.8808 FERDAKAAT RRAWISHTEKY -0.1996
-1.8808 FERDAKAAT RRAAST -0.2935
-1.8808 FERDAKAAT SHA -0.2467
-1.8808 FERDAKAAT SHEWAAZY -0.2944
-1.8808 FERDAKAAT WAKW -0.2361
-1.8808 FERDAKAAT XAAWEN -0.2442
-1.8808 FERDAKAAT XOSHDAWE -0.2969
-1.8808 FERDAKAAT XWSHK -0.2326
-0.6910 FERIMAAN </s> -0.3010
-1.7324 FERIMAAN ANJAAMY -0.2361
-1.7324 FERIMAAN BAYAANY -0.2961
-1.7324 FERIMAAN BO -0.2109
-1.7324 FERIMAAN BOYAAXCHY -0.2852
-1.7324 FERIMAAN DIRAXT -0.2407
-1.7324 FERIMAAN DIRWST -0.2929
-1.7324 FERIMAAN HAFTA -0.2900
-1.7324 FERIMAAN HALLDASTIM -0.2881
-1.7324 FERIMAAN KOMPYWTAR -0.2126
-1.7324 FERIMAAN QWTAABXAANA -0.2144
-1.7324 FERIMAAN RRAWISHTEKY -0.2825
-1.4314 FERIMAAN SAYRAAN -0.2858
-1.7324 FERIMAAN SHYRYNA -0.2872
-1.4314 FERIMAAN XAAWEN -0.2928
-0.7782 GAAZINDAY </s> -0.3010
-1.6232 GAAZINDAY CHAND -0.2967
-1.6232 GAAZINDAY DAAR -0.2492
-1.6232 GAAZINDAY DARROM -0.1691
-1.6232 GAAZINDAY FERIMAAN -0.2929
-1.6232 GAAZINDAY HHAZMAAN -0.2817
-1.6232 GAAZINDAY KIRD -0.2964
-1.6232 GAAZINDAY MAALLY -0.2957
-1.6232 GAAZINDAY MAAMOSTAA -0.2975
-1.6232 GAAZINDAY NWEMAAN -0.2923
-1.6232 GAAZINDAY RRANG -0.2966
-1.6232 GAAZINDAY RROZH -0.2982
-1.6232 GAAZINDAY TWND -0.2840
-1.6232 GAAZINDAY XIZMATY -0.2894
-1.6232 GAAZINDAY XOSHDAWE -0.2969
-0.6435 GAMA </s> -0.3010
-1.6435 GAMA AAMEREKY -0.2915
-1.6435 GAMA DANORRIM -0.2632
-1.6435 GAMA GAMA -0.2910
-1.6435 GAMA HYWAAY -0.2253
-1.6435 GAMA MAAYAWA -0.2852
-1.6435 GAMA PIZYSHK -0.2663
-1.6435 GAMA RRANG -0.2966
-1.6435 GAMA SHAARAKA -0.2968
-1.6435 GAMA SHWFER -0.2940
-1.6435 GAMA YAASAA -0.2926
-1.6435 GAMA ZOR -0.2167
-1.6435 GAMA ZYRAK -0.2965
-1.0792 GARRAAM </s> -0.3010
-1.7782 GARRAAM AMAANAY -0.2181
-1.7782 GARRAAM BAAXAKA -0.2374
-1.7782 GARRAAM BASAR -0.2906
-1.4771 GARRAAM DAAR -0.2430
-1.7782 GARRAAM DAAYK -0.2980
-1.7782 GARRAAM DADAATE -0.2956
-1.7782 GARRAAM DARAWA -0.2910
-1.4771 GARRAAM GAMA -0.1761
-1.7782 GARRAAM HAAWRRE -0.2967
-1.7782 GARRAAM KAATE -0.2583
-1.7782 GARRAAM LEDAXWRRET -0.2894
-1.7782 GARRAAM RREZ -0.1703
-1.4771 GARRAAM RROZH -0.2953
-1.7782 GARRAAM SHEWAAZY -0.2944
-1.7782 GARRAAM SHWFER -0.2868
-1.7782 GARRAAM TANYAA -0.2923
-1.7782 GARRAAM TO -0.2341
-1.7782 GARRAAM WRYAA -0.2285
-1.7782 GARRAAM XAAWEN -0.2928
-1.7782 GARRAAM XOSHDAWE -0.2969
-1.7782 GARRAAM ZAWY -0.2009
-1.7782 GARRAAM ZWW -0.2071
-0.9031 GASHA </s> -0.3010
-2.0170 GASHA AM -0.1761
-2.0170 GASHA BAAWK -0.2374
-1.7160 GASHA BALLAAM -0.2304
-2.0170 GASHA BIGRET -0.2919
-2.0170 GASHA BIPIRSIN -0.2932
-2.0170 GASHA BIXWENYN -0.2910
-2.0170 GASHA CHAPDAA -0.2923
-2.0170 GASHA DAARISTAANA -0.2863
-2.0170 GASHA DARCHWWY -0.2894
-1.7160 GASHA DEM -0.2430
-2.0170 GASHA DIRAXT -0.2929
-2.0170 GASHA DWKAAN -0.2183
-2.0170 GASHA GASHA -0.2968
-2.0170 GASHA GHAARDAAN -0.2619
-2.0170 GASHA HABWW -0.2872
-1.7160 GASHA HALLDASTIM -0.1675
-2.0170 GASHA HALLYKIRD -0.2872
-1.7160 GASHA HASHT -0.2041
-2.0170 GASHA JWTYAAR -0.1996
-2.0170 GASHA KAANY -0.2071
-2.0170 GASHA KALWPALY -0.2430
-2.0170 GASHA KIRD -0.2417
-2.0170 GASHA MABAWA -0.2533
-1.5399 GASHA MINDAALL -0.2218
-2.0170 GASHA NWSYN -0.2486
-2.0170 GASHA PARY -0.2181
-2.0170 GASHA POLAKAT -0.2900
-2.0170 GASHA SARAWA -0.2894
-2.0170 GASHA SARDAAN -0.2319
-2.0170 GASHA TWAANY -0.2900
-2.0170 GASHA WSHA -0.2956
-2.0170 GASHA XWAARAWA -0.1829
-2.0170 GASHA ZARD -0.2872
-0.7782 GAYAANDIBWW </s> -0.3010
-1.6232 GAYAANDIBWW BAA -0.2894
-1.6232 GAYAANDIBWW BAAYAKY -0.2926
-1.6232 GAYAANDIBWW DARROM -0.1691
-1.6232 GAYAANDIBWW DWKAAN -0.2921
-1.6232 GAYAANDIBWW GARRAAM -0.2937
-1.6232 GAYAANDIBWW NAABYNAAY -0.2888
-1.6232 GAYAANDIBWW PEXOSHA -0.2430
-1.6232 GAYAANDIBWW QWTAABXAANA -0.2144
-1.6232 GAYAANDIBWW SHAARAKA -0.2968
-1.6232 GAYAANDIBWW TANDIRWSTY -0.2926
-1.6232 GAYAANDIBWW TO -0.2906
-1.6232 GAYAANDIBWW XWENDIN -0.2972
-1.6232 GAYAANDIBWW ZAWY -0.2881
-1.6232 GAYAANDIBWW ZIMAANY -0.2518
-1.0645 GHAARDAAN </s> -0.3010
-1.7634 GHAARDAAN BAA -0.2894
-1.7634 GHAARDAAN BAAXCHAKAY -0.2162
-1.7634 GHAARDAAN BASAR -0.2906
-1.7634 GHAARDAAN BIDWEYN -0.2910
-1.7634 GHAARDAAN DABIRZHENET -0.2430
-1.7634 GHAARDAAN DAYPAAREZIM -0.1829
-1.7634 GHAARDAAN DWKAAN -0.2183
-1.7634 GHAARDAAN GIZH -0.2361
-1.7634 GHAARDAAN GWEBIGRA -0.2178
-1.7634 GHAARDAAN JWAAN -0.2966
-1.7634 GHAARDAAN NAAW -0.2977
-1.7634 GHAARDAAN NAMAAM -0.2264
-1.7634 GHAARDAAN NAXOSH -0.2915
-1.7634 GHAARDAAN NIZYK -0.2407
-1.7634 GHAARDAAN RRAAST -0.2935
-1.4624 GHAARDAAN RRANG -0.2236
-1.7634 GHAARDAAN SARTAASH -0.2888
-1.7634 GHAARDAAN SHWFER -0.2246
-1.7634 GHAARDAAN SWWDA -0.2953
-1.7634 GHAARDAAN TOPAANE -0.2881
-1.7634 GHAARDAAN WENAKAAN -0.2319
-1.7634 GHAARDAAN XOSHDAWE -0.2300
-1.7634 GHAARDAAN ZARD -0.2872
-0.8081 GIRT </s> -0.3010
-1.9542 GIRT AMAANAY -0.2181
-1.9542 GIRT BIXWENAWA -0.2863
-1.9542 GIRT BIXWENYN -0.2910
-1.9542 GIRT BYNY -0.2963
-1.9542 GIRT BYR -0.2926
-1.9542 GIRT CHAND -0.2967
-1.9542 GIRT DAAYK -0.2430
-1.9542 GIRT DABIRZHENET -0.2430
-1.9542 GIRT DACHIMA -0.2910
-1.9542 GIRT DASHOM -0.2863
-1.6532 GIRT GWTY -0.2304
-1.9542 GIRT GYAA -0.2272
-1.9542 GIRT HAAWRRE -0.2253
-1.9542 GIRT HOSHA -0.2355
-1.9542 GIRT HYWAAY -0.2923
-1.9542 GIRT KAS -0.2863
-1.9542 GIRT MIN -0.2139
-1.9542 GIRT MINDAALL -0.2958
-1.6532 GIRT NAWAY -0.1761
-1.9542 GIRT QARAAGHY -0.2389
-1.9542 GIRT RRANG -0.2966
-1.9542 GIRT RREGADAA -0.2906
-1.9542 GIRT RROZH -0.2982
-1.9542 GIRT SAALL -0.2275
-1.9542 GIRT SAYRAAN -0.2935
-1.9542 GIRT SHWENY -0.1963
-1.9542 GIRT XEZAAN -0.2310
-1.9542 GIRT XWENDIN -0.2331
-1.9542 GIRT XWSHK -0.2919
-0.8573 GIZH </s> -0.3010
-1.5563 GIZH BAFYRRO -0.1761
-1.5563 GIZH DWKAAN -0.2966
-1.5563 GIZH GHAARDAAN -0.2935
-1.5563 GIZH GOSHTFROSH -0.2910
-1.5563 GIZH HARDWW -0.2460
-1.5563 GIZH HAAWRRE -0.2967
-1.5563 GIZH JWTYAAR -0.2825
-1.5563 GIZH KAATE -0.2583
-1.5563 GIZH MAYDAANY -0.2881
-1.5563 GIZH NWEMAAN -0.2148
-1.5563 GIZH SWWDA -0.2953
-1.5563 GIZH XWENDIN -0.2991
-1.5563 GIZH ZYRAK -0.2965
-0.8653 GOSHT </s> -0.3010
-1.6435 GOSHT BIPIRSIN -0.2932
-1.6435 GOSHT CHON -0.2942
-1.6435 GOSHT CHWAAR -0.2109
-1.6435 GOSHT GOSHT -0.2910
-1.6435 GOSHT GOSHTFROSH -0.2910
-1.6435 GOSHT HARDWW -0.2906
-1.6435 GOSHT LEBGRIN -0.2825
-1.6435 GOSHT MAALLY -0.2957
-1.6435 GOSHT NAAW -0.2977
-1.6435 GOSHT NWEMAAN -0.2923
-1.6435 GOSHT QARAAGHY -0.2863
-1.6435 GOSHT QWTAABXAANA -0.2144
-1.6435 GOSHT RROZH -0.2982
-1.6435 GOSHT SHAAXY -0.2609
-1.6435 GOSHT TOPAANE -0.2319
-1.6435 GOSHT XEZAAN -0.2310
-0.8653 GOSHTFROSH </s> -0.3010
-1.6435 GOSHTFROSH BAASH -0.2881
-1.6435 GOSHTFROSH BIKAYN -0.2341
-1.6435 GOSHTFROSH DASHOM -0.2863
-1.3424 GOSHTFROSH DIRAXT -0.2846
-1.6435 GOSHTFROSH GAAZINDAY -0.2218
-1.6435 GOSHTFROSH GAYAANDIBWW -0.2906
-1.6435 GOSHTFROSH HOSHA -0.2923
-1.6435 GOSHTFROSH KA -0.2872
-1.6435 GOSHTFROSH PAAYTAXTY -0.2808
-1.6435 GOSHTFROSH RRAAST -0.2452
-1.6435 GOSHTFROSH RRANG -0.2289
-1.6435 GOSHTFROSH WLLAATAKAY -0.2919
-1.6435 GOSHTFROSH XAAWEN -0.2442
-1.6435 GOSHTFROSH YAARMATY -0.2825
-1.6435 GOSHTFROSH ZOR -0.2968
-0.7584 GWEBIGRA </s> -0.3010
-1.9345 GWEBIGRA AASINGAR -0.2730
-1.9345 GWEBIGRA BOYAAXCHY -0.2852
-1.9345 GWEBIGRA CHAND -0.2967
-1.9345 GWEBIGRA DAARTAASH -0.2430
-1.6335 GWEBIGRA DAGRIM -0.2218
-1.9345 GWEBIGRA DARCHWWY -0.2894
-1.9345 GWEBIGRA FERDAKAAT -0.2953
-1.9345 GWEBIGRA GAAZINDAY -0.2218
-1.9345 GWEBIGRA HAMWWMAAN -0.2900
-1.9345 GWEBIGRA HAR -0.2430
-1.9345 GWEBIGRA HAAWRRE -0.2967
-1.9345 GWEBIGRA HHAZMAAN -0.2915
-1.9345 GWEBIGRA HOSHA -0.2923
-1.9345 GWEBIGRA KWRRE -0.2906
-1.9345 GWEBIGRA LEMAAN -0.2944
-1.9345 GWEBIGRA MINDAALL -0.2958
-1.9345 GWEBIGRA NAMAAM -0.2264
-1.9345 GWEBIGRA NWSYN -0.2910
-1.9345 GWEBIGRA QWTAABXAANA -0.2964
-1.9345 GWEBIGRA QWTAABY -0.2932
-1.9345 GWEBIGRA RRAAYALLY -0.2808
-1.9345 GWEBIGRA RRWWNAAKY -0.2255
-1.9345 GWEBIGRA SAAKAARA -0.2808
-1.9345 GWEBIGRA SAAM -0.2926
-1.9345 GWEBIGRA WRYAA -0.2977
-1.9345 GWEBIGRA XAAWEN -0.2928
-1.9345 GWEBIGRA XOMAAN -0.2891
-0.8129 GWLL </s> -0.3010
-1.4150 GWLL ANJAAMY -0.2888
-1.4150 GWLL CHIRAAYA -0.2258
-1.4150 GWLL DAAWAAY -0.2304
-1.4150 GWLL DACHIMA -0.2596
-1.4150 GWLL DWWAM -0.2951
-1.4150 GWLL NAAN -0.2968
-1.4150 GWLL PENJ -0.2455
-1.4150 GWLL QWTAABY -0.2932
-1.4150 GWLL SILLAAW -0.1856
-0.8062 GWNDEK </s> -0.3010
-1.5051 GWNDEK AMRRO -0.2935
-1.5051 GWNDEK CHY -0.2957
-1.5051 GWNDEK DAAYK -0.2430
-1.5051 GWNDEK FERIMAAN -0.2929
-1.5051 GWNDEK GARRAAM -0.2937
-1.5051 GWNDEK GWTY -0.2368
-1.5051 GWNDEK RRWWNAAKY -0.2255
-1.5051 GWNDEK SHAQAAMAKA -0.2852
-1.5051 GWNDEK SHWENY -0.1963
-1.5051 GWNDEK SIPY -0.1691
-1.5051 GWNDEK ZAWY -0.2009
-0.8617 GWTY </s> -0.3010
-1.9031 GWTY BAAXAKA -0.2910
-1.9031 GWTY BAAXCHAKAY -0.2162
-1.9031 GWTY BAYAANY -0.2139
-1.9031 GWTY BIGRET -0.2919
-1.9031 GWTY CH -0.2910
-1.9031 GWTY CHON -0.2352
-1.9031 GWTY DARCHWWY -0.2894
-1.9031 GWTY DILGYR -0.2906
-1.9031 GWTY GIRT -0.2962
-1.9031 GWTY HALLA -0.2326
-1.9031 GWTY HAR -0.2730
-1.9031 GWTY KAAM -0.2888
-1.9031 GWTY LAGALL -0.2906
-1.9031 GWTY MAQAST -0.2906
-1.9031 GWTY NAAW -0.2324
-1.9031 GWTY PIRSYAAR -0.2894
-1.9031 GWTY PIZYSHK -0.2954
-1.9031 GWTY POLAKAT -0.2900
-1.9031 GWTY POLY -0.2929
-1.9031 GWTY QARAAGHY -0.2389
-1.6021 GWTY RREZ -0.1584
-1.9031 GWTY RRWWNAAKY -0.2255
-1.9031 GWTY SAADA -0.2906
-1.9031 GWTY SAAKAARA -0.2808
-1.9031 GWTY SAAM -0.2926
-1.9031 GWTY TWAANY -0.2430
-1.9031 GWTY YAARMATY -0.2919
-1.9031 GWTY ZAWY -0.2881
-0.8062 GYAA </s> -0.3010
-1.5051 GYAA BO -0.2919
-1.5051 GYAA CHON -0.2352
-1.5051 GYAA CHYYA -0.2881
-1.5051 GYAA GAMA -0.1891
-1.5051 GYAA GIRT -0.2962
-1.5051 GYAA HAAWRRE -0.2253
-1.5051 GYAA JWAAN -0.2966
-1.5051 GYAA KAANY -0.2888
-1.5051 GYAA KAAT -0.2293
-1.5051 GYAA NAADAM -0.2937
-1.5051 GYAA ZARD -0.2872
-0.8062 HABWW </s> -0.3010
-1.5051 HABWW DAKAA -0.2009
-1.5051 HABWW DWWRA -0.2919
-1.5051 HABWW HARDWW -0.2460
-1.5051 HABWW MAALLY -0.2957
-1.5051 HABWW MALLBANDY -0.2093
-1.5051 HABWW NAADAM -0.2937
-1.5051 HABWW NAAW -0.2324
-1.5051 HABWW RRANG -0.2966
-1.5051 HABWW SHAMMAYA -0.2906
-1.5051 HABWW WARBIGRIN -0.2900
-1.5051 HABWW XWENDIN -0.2991
-0.9031 HAFTA </s> -0.3010
-1.6021 HAFTA AW -0.2910
-1.6021 HAFTA BAAWK -0.2944
-1.6021 HAFTA BILLIND -0.2962
-1.6021 HAFTA DAKAWET -0.1919
-1.6021 HAFTA DWWRA -0.2533
-1.6021 HAFTA GHAARDAAN -0.2935
-1.6021 HAFTA GIRT -0.2962
-1.6021 HAFTA HABWW -0.2872
-1.6021 HAFTA HALLYKIRD -0.2872
-1.6021 HAFTA LA -0.2319
-1.6021 HAFTA MAALLY -0.2957
-1.6021 HAFTA NAMAAM -0.2264
-1.6021 HAFTA OTOMBELAKA -0.2900
-1.6021 HAFTA SARATAAY -0.2906
-1.6021 HAFTA WRYAA -0.2977
-0.8361 HALLA </s> -0.3010
-1.6812 HALLA BAAXAKA -0.2910
-1.6812 HALLA BILLIND -0.2962
-1.6812 HALLA BYNY -0.2963
-1.6812 HALLA CHIRAAYA -0.2910
-1.6812 HALLA DAANAA -0.2460
-1.6812 HALLA GWEBIGRA -0.2178
-1.6812 HALLA HAYA -0.2389
-1.6812 HALLA JWTYAAR -0.2825
-1.6812 HALLA KAANY -0.2071
-1.6812 HALLA KIRD -0.2417
-1.6812 HALLA NAADAM -0.2937
-1.6812 HALLA NAAW -0.2324
-1.6812 HALLA PARY -0.2915
-1.6812 HALLA PYROZBE -0.2906
-1.6812 HALLA QARAAGHY -0.2863
-1.6812 HALLA SILLAAW -0.1856
-1.6812 HALLA XEZAAN -0.2964
-0.6284 HALLDASTIM </s> -0.3010
-1.5315 HALLDASTIM CHY -0.2957
-1.5315 HALLDASTIM DARRWENIN -0.2341
-1.5315 HALLDASTIM DASTY -0.2852
-1.5315 HALLDASTIM GAYAANDIBWW -0.2218
-1.5315 HALLDASTIM NAAW -0.2324
-1.5315 HALLDASTIM PENWWS -0.2900
-1.5315 HALLDASTIM RRAWISHTY -0.2009
-1.5315 HALLDASTIM RREHHAAN -0.2645
-1.5315 HALLDASTIM WRYAA -0.2285
-0.8016 HALLPARRYN </s> -0.3010
-1.5798 HALLPARRYN DARRWENIN -0.2906
-1.5798 HALLPARRYN FERIMAAN -0.2929
-1.5798 HALLPARRYN HOSHA -0.2355
-1.5798 HALLPARRYN KAATE -0.2583
-1.5798 HALLPARRYN LEMAAN -0.2139
-1.5798 HALLPARRYN NAADAM -0.2937
-1.5798 HALLPARRYN PENJ -0.2455
-1.5798 HALLPARRYN POLY -0.2499
-1.5798 HALLPARRYN RRWWNAAKY -0.2964
-1.5798 HALLPARRYN SAALL -0.2982
-1.2788 HALLPARRYN SARDAAN -0.2319
-1.5798 HALLPARRYN WARBIGRIN -0.2900
-0.8062 HALLYKIRD </s> -0.3010
-1.5051 HALLYKIRD AW -0.2910
-1.5051 HALLYKIRD BAYAANY -0.2961
-1.5051 HALLYKIRD DAAWAAY -0.2900
-1.5051 HALLYKIRD DARBAAZY -0.2881
-1.5051 HALLYKIRD HABWW -0.2272
-1.5051 HALLYKIRD KIRD -0.2964
-1.5051 HALLYKIRD LA -0.2881
-1.5051 HALLYKIRD QWTAABY -0.2249
-1.5051 HALLYKIRD XOMAAN -0.2380
-1.5051 HALLYKIRD ZWW -0.2071
-1.5051 HALLYKIRD ZYRAK -0.2872
-0.8239 HAMWWMAAN </s> -0.3010
-1.6021 HAMWWMAAN AAMEREKY -0.2915
-1.6021 HAMWWMAAN BAKAARDENET -0.2906
-1.6021 HAMWWMAAN BIKAAT -0.1761
-1.6021 HAMWWMAAN CHWAAR -0.2919
-1.6021 HAMWWMAAN DWWAM -0.2951
-1.6021 HAMWWMAAN GIRT -0.2276
-1.6021 HAMWWMAAN GWTY -0.2956
-1.6021 HAMWWMAAN KAAT -0.2915
-1.6021 HAMWWMAAN PARY -0.2915
-1.6021 HAMWWMAAN QWTAABY -0.2932
-1.6021 HAMWWMAAN WRYAA -0.2285
-1.3010 HAMWWMAAN XWENDIN -0.2309
-1.6021 HAMWWMAAN YAKAMIM -0.2511
-0.9031 HAR </s> -0.3010
-1.2041 HAR AM -0.1576
-1.5051 HAR BAYAANY -0.2961
-1.5051 HAR BWW -0.2948
-1.5051 HAR DABIRZHENET -0.2900
-1.5051 HAR HALLPARRYN -0.2894
-1.5051 HAR LAXOBAAYY -0.2583
-1.5051 HAR LEBGRIN -0.2825
-1.5051 HAR LEDAXWRRET -0.1836
-1.5051 HAR NAAW -0.2977
-1.5051 HAR RROZH -0.2298
-1.5051 HAR SARAWA -0.2527
-0.9243 HARDWW </s> -0.3010
-1.6232 HARDWW BAAPYRIM -0.2139
-1.6232 HARDWW CHAARADAKAAT -0.2888
-1.6232 HARDWW DAAYK -0.2430
-1.6232 HARDWW DAKAN -0.2093
-1.6232 HARDWW DARBAAZY -0.2467
-1.6232 HARDWW DIRWST -0.2929
-1.6232 HARDWW KA -0.2730
-1.6232 HARDWW KAAM -0.2888
-1.6232 HARDWW KALWPALY -0.2900
-1.6232 HARDWW NAAW -0.2977
-1.6232 HARDWW NIZHYAAR -0.2881
-1.6232 HARDWW NIZYK -0.2407
-1.6232 HARDWW PIZYSHK -0.2954
-1.3222 HARDWW QWTAABXAANA -0.2087
-1.6232 HARDWW XAAWEN -0.2969
-0.6990 HASHT </s> -0.3010
-1.6990 HASHT AASINGAR -0.2872
-1.6990 HASHT BINARRATY -0.2910
-1.6990 HASHT BYNY -0.2403
-1.6990 HASHT DAAHAATWWYN -0.1938
-1.6990 HASHT DAAYK -0.2430
-1.6990 HASHT DARCHWWY -0.2894
-1.6990 HASHT DASHOM -0.2553
-1.6990 HASHT DWWAM -0.2951
-1.6990 HASHT GWEBIGRA -0.2960
-1.6990 HASHT HHAZMAAN -0.2963
-1.6990 HASHT NABWW -0.2926
-1.6990 HASHT PARY -0.2181
-1.6990 HASHT SAALL -0.2275
-1.6990 HASHT SHWFER -0.2246
-1.6990 HASHT WSHA -0.1973
-1.3010 HAWLER </s> -0.3010
-1.3010 HAWLER CHIRAAYA -0.2910
-1.3010 HAWLER DAKAA -0.2009
-1.3010 HAWLER DAPARRIMAWA -0.2910
-1.3010 HAWLER HALLPARRYN -0.2264
-1.3010 HAWLER LAAY -0.2863
-1.3010 HAWLER MAAMOSTAA -0.2975
-1.3010 HAWLER MAQAST -0.2093
-1.3010 HAWLER NAXOSH -0.2293
-1.3010 HAWLER NIZYK -0.2929
-0.7959 HAAWRRE </s> -0.3010
-2.0000 HAAWRRE BASAR -0.2906
-2.0000 HAAWRRE BINARRATY -0.2258
-2.0000 HAAWRRE BINWWSA -0.2884
-2.0000 HAAWRRE BIPIRSIN -0.2932
-2.0000 HAAWRRE CH -0.2016
-2.0000 HAAWRRE DAAR -0.2956
-1.6990 HAAWRRE DAAYK -0.2396
-2.0000 HAAWRRE DILGYR -0.2906
-2.0000 HAAWRRE DWKAAN -0.2966
-2.0000 HAAWRRE GASHA -0.2968
-2.0000 HAAWRRE GWLL -0.2840
-2.0000 HAAWRRE JEYA -0.2788
-2.0000 HAAWRRE LAAY -0.2863
-2.0000 HAAWRRE LATAMANY -0.2894
-2.0000 HAAWRRE LEMAAN -0.2944
-2.0000 HAAWRRE MIN -0.2910
-2.0000 HAAWRRE NAAN -0.2968
-2.0000 HAAWRRE NACHIN -0.2926
-2.0000 HAAWRRE NAXOSH -0.2293
-2.0000 HAAWRRE NIZHYAAR -0.2881
-2.0000 HAAWRRE PYAAWEKY -0.2863
-2.0000 HAAWRRE QWTAABY -0.2249
-2.0000 HAAWRRE RRAWISHTEKY -0.1996
-2.0000 HAAWRRE SAALL -0.2275
-2.0000 HAAWRRE SAAM -0.2478
-1.6990 HAAWRRE SHA -0.2319
-2.0000 HAAWRRE TWAANY -0.2900
-2.0000 HAAWRRE WALLAAMY -0.2863
-2.0000 HAAWRRE WRYAA -0.2285
-2.0000 HAAWRRE XEZAAN -0.2310
-2.0000 HAAWRRE XOSHDAWE -0.2969
-2.0000 HAAWRRE XWSHK -0.2326
-0.8751 HAYA </s> -0.3010
-1.4771 HAYA BASAR -0.2906
-1.4771 HAYA CHAAWIM -0.2888
-1.4771 HAYA DAARTAASH -0.2872
-1.4771 HAYA DAAYK -0.2430
-1.4771 HAYA DAKAN -0.2093
-1.4771 HAYA DARROM -0.2906
-1.4771 HAYA HY -0.2609
-1.4771 HAYA JWTYAAR -0.1996
-1.4771 HAYA POLY -0.2929
-1.4771 HAYA QARAAGHY -0.2863
-1.4771 HAYA XOMAAN -0.2951
-1.3617 HHAZMAAN </s> -0.3010
-1.9638 HHAZMAAN AMAANAY -0.2915
-1.9638 HHAZMAAN BAFYRRO -0.1761
-1.9638 HHAZMAAN BASHA -0.1761
-1.9638 HHAZMAAN BWW -0.2341
-1.3617 HHAZMAAN CHAND -0.2405
-1.9638 HHAZMAAN CHAPDAA -0.1931
-1.9638 HHAZMAAN CHWNKA -0.2915
-1.9638 HHAZMAAN DAAHAATWWYN -0.1938
-1.9638 HHAZMAAN DAARTAASH -0.2430
-1.9638 HHAZMAAN FERIMAAN -0.2021
-1.4867 HHAZMAAN GASHA -0.2334
-1.9638 HHAZMAAN GWEBIGRA -0.2178
-1.9638 HHAZMAAN GWTY -0.2368
-1.9638 HHAZMAAN HAAWRRE -0.2967
-1.9638 HHAZMAAN JWAAN -0.2921
-1.9638 HHAZMAAN KAAM -0.2499
-1.9638 HHAZMAAN KWRRE -0.2798
-1.9638 HHAZMAAN LA -0.2881
-1.9638 HHAZMAAN LEMAAN -0.2139
-1.9638 HHAZMAAN MAAMOSTAA -0.2975
-1.9638 HHAZMAAN MIN -0.2910
-1.9638 HHAZMAAN NAABYNAAY -0.1919
-1.9638 HHAZMAAN OTOMBELAKA -0.2553
-1.9638 HHAZMAAN PEXOSHA -0.2900
-1.9638 HHAZMAAN RRAAMAAN -0.2355
-1.9638 HHAZMAAN RRAWISHTY -0.2009
-1.9638 HHAZMAAN RREGADAA -0.2576
-1.9638 HHAZMAAN SAADA -0.2576
-1.6628 HHAZMAAN SHWFER -0.2246
-1.9638 HHAZMAAN SHYRYNA -0.2872
-1.9638 HHAZMAAN TWND -0.2840
-1.9638 HHAZMAAN WRYAA -0.2285
-1.9638 HHAZMAAN XEZAAN -0.2917
-1.9638 HHAZMAAN XOBAAYY -0.2258
-1.9638 HHAZMAAN XORRAAGIRTIN -0.2910
-1.9638 HHAZMAAN ZWW -0.2071
-0.8539 HOSHA </s> -0.3010
-1.6990 HOSHA AAZAABYN -0.2398
-1.6990 HOSHA BINWWSA -0.2948
-1.6990 HOSHA BIPIRSIN -0.2932
-1.3979 HOSHA CHAND -0.2504
-1.6990 HOSHA DAAR -0.2492
-1.6990 HOSHA DAHAATAWA -0.2863
-1.6990 HOSHA DARROM -0.1691
-1.6990 HOSHA DWWAM -0.2891
-1.6990 HOSHA GOSHT -0.2910
-1.6990 HOSHA HAFTA -0.2430
-1.6990 HOSHA HYCH -0.1891
-1.6990 HOSHA KA -0.2872
-1.6990 HOSHA KIRD -0.2964
-1.6990 HOSHA LEMAAN -0.2944
-1.6990 HOSHA SAAM -0.2926
-1.3979 HOSHA ZYRAK -0.2919
-1.0544 HY </s> -0.3010
-1.5315 HY BIGRET -0.2919
-1.5315 HY CHAARADAKAAT -0.2218
-1.5315 HY DAHAATAWA -0.2863
-1.5315 HY GIZH -0.2361
-1.5315 HY LEBGRIN -0.2825
-1.2304 HY QWTAABXAANA -0.2869
-1.5315 HY QWTAABY -0.2932
-1.5315 HY SARDAAN -0.2881
-1.5315 HY SILLAAW -0.2863
-1.5315 HY TWND -0.2285
-1.5315 HY XOMAAN -0.2951
-1.5315 HY XWAARAWA -0.2906
-1.5315 HY XWENDIN -0.2331
-0.6435 HYCH </s> -0.3010
-1.6435 HYCH BASHA -0.1761
-1.6435 HYCH BIKAYN -0.2906
-1.6435 HYCH GWLL -0.2840
-1.6435 HYCH KAAM -0.2499
-1.6435 HYCH KIRD -0.2417
-1.6435 HYCH MAAYAWA -0.2852
-1.6435 HYCH PEXOSHA -0.2900
-1.6435 HYCH SHAQAAMAKA -0.2852
-1.6435 HYCH WALLAAMY -0.2711
-1.3424 HYCH XWENDIN -0.2331
-1.6435 HYCH ZOR -0.2167
-0.7959 HYWAAY </s> -0.3010
-1.6990 HYWAAY BAKAARDENET -0.2906
-1.6990 HYWAAY BYNY -0.2915
-1.3979 HYWAAY DAANAA -0.2341
-1.3979 HYWAAY HY -0.2747
-1.6990 HYWAAY KWRDISTAAN -0.2910
-1.6990 HYWAAY MALLBANDY -0.2906
-1.6990 HYWAAY SAAM -0.2926
-1.6990 HYWAAY SAYRAAN -0.2452
-1.6990 HYWAAY TWAANY -0.2430
-1.6990 HYWAAY WAAYA -0.2919
-1.6990 HYWAAY XOBAAYY -0.2258
-1.6990 HYWAAY XWENDIN -0.2331
-1.6990 HYWAAY XWSHK -0.2326
-1.6990 HYWAAY ZAWY -0.2009
-1.6990 HYWAAY ZYRAK -0.2872
-0.8239 JEYA </s> -0.3010
-1.6021 JEYA BAAXAKA -0.2374
-1.6021 JEYA BASAR -0.2906
-1.6021 JEYA BINWWSA -0.2948
-1.6021 JEYA CHAND -0.2553
-1.6021 JEYA DAHAATAWA -0.2863
-1.6021 JEYA DWWAM -0.2951
-1.6021 JEYA HAWLER -0.2788
-1.6021 JEYA NABWW -0.2926
-1.3010 JEYA PENWWS -0.2041
-1.6021 JEYA SAWZ -0.2071
-1.6021 JEYA SHAARAKA -0.2968
-1.6021 JEYA WAAYA -0.2632
-1.6021 JEYA ZYRAK -0.2965
-0.7125 JWAAN </s> -0.3010
-1.9912 JWAAN AMAANAY -0.2181
-1.9912 JWAAN BAAYAKY -0.2571
-1.9912 JWAAN BAYAANY -0.2961
-1.9912 JWAAN BIKAYN -0.2906
-1.9912 JWAAN CH -0.2016
-1.9912 JWAAN CHAAWIM -0.2888
-1.9912 JWAAN DAAR -0.2492
-1.9912 JWAAN DAKAWET -0.2888
-1.9912 JWAAN GWTY -0.2956
-1.9912 JWAAN HALLA -0.2326
-1.6902 JWAAN HASHT -0.2041
-1.9912 JWAAN HYWAAY -0.2253
-1.9912 JWAAN KWRRE -0.2460
-1.9912 JWAAN NAADAM -0.2937
-1.9912 JWAAN PENWWS -0.2900
-1.9912 JWAAN PEY -0.2935
-1.9912 JWAAN QWTAABXAANA -0.2144
-1.9912 JWAAN RROZH -0.2298
-1.9912 JWAAN SAADA -0.2906
-1.9912 JWAAN SHAMMAYA -0.2906
-1.9912 JWAAN TANDIRWSTY -0.2926
-1.9912 JWAAN TYAA -0.2888
-1.9912 JWAAN WLLAATAKAY -0.2919
-1.6902 JWAAN XEZAAN -0.2310
-1.9912 JWAAN XWENDIN -0.2972
-1.9912 JWAAN YAKDANG -0.2881
-1.9912 JWAAN ZHYAAN -0.2355
-1.9912 JWAAN ZYAANYAAN -0.2900
-0.6812 JWTYAAR </s> -0.3010
-1.3802 JWTYAAR BIDAWA -0.2881
-1.3802 JWTYAAR BIXWENAWA -0.2863
-1.3802 JWTYAAR CHIRAAYA -0.2258
-1.3802 JWTYAAR DARCHWWY -0.2894
-1.3802 JWTYAAR DILGYR -0.2688
-1.3802 JWTYAAR GWTY -0.2368
-1.3802 JWTYAAR HASHT -0.2923
-0.9031 KA </s> -0.3010
-1.5051 KA ANJAAMY -0.2888
-1.5051 KA CHY -0.2957
-1.5051 KA DASTY -0.2852
-1.2041 KA DWWAM -0.2891
-1.5051 KA MINDAALL -0.2958
-1.5051 KA NAAW -0.2324
-1.5051 KA NAWAY -0.1903
-1.5051 KA PIZYSHK -0.2954
-1.5051 KA QWTAABXAANA -0.2144
-1.5051 KA RREZ -0.2923
-1.5051 KA XEZAAN -0.2964
-0.9542 KAAM </s> -0.3010
-1.5563 KAAM BASWWDA -0.2460
-1.5563 KAAM CHWNKA -0.2403
-1.5563 KAAM DAGRIM -0.2958
-1.5563 KAAM GASHA -0.2968
-1.5563 KAAM GIRT -0.2913
-1.5563 KAAM GWTY -0.2900
-1.5563 KAAM JWAAN -0.2966
-1.5563 KAAM MALLBANDY -0.2093
-1.5563 KAAM NIZYK -0.2929
-1.5563 KAAM PAAYTAXTY -0.1891
-1.5563 KAAM POLAKAT -0.2900
-1.5563 KAAM QWTAABXAANA -0.2964
-1.5563 KAAM SHAARAKA -0.2968
-1.5563 KAAM XOBAAYY -0.2910
-0.7112 KAANY </s> -0.3010
-1.5563 KAANY BAAXCHAKAY -0.2940
-1.5563 KAANY BINARRATY -0.2910
-1.5563 KAANY BOYAAXCHY -0.2852
-1.5563 KAANY DAGRIM -0.2280
-1.5563 KAANY KWRDISTAAN -0.2139
-1.5563 KAANY MAQAST -0.2906
-1.5563 KAANY PANJARA -0.2576
-1.5563 KAANY RROZH -0.2982
-1.5563 KAANY SAALL -0.2275
-1.5563 KAANY WLLAATAKAY -0.2919
-1.5563 KAANY XWAARAWA -0.2906
-0.8177 KAAT </s> -0.3010
-1.6628 KAAT AASINGAR -0.2872
-1.6628 KAAT BASHA -0.2919
-1.6628 KAAT CHIRAAYA -0.2910
-1.6628 KAAT DAAYK -0.2980
-1.6628 KAAT DWKAAN -0.2966
-1.6628 KAAT FERDAKAAT -0.2953
-1.6628 KAAT HALLDASTIM -0.2881
-1.6628 KAAT MAALLY -0.2957
-1.6628 KAAT MALLBANDY -0.2093
-1.6628 KAAT PAAYTAXTY -0.1891
-1.6628 KAAT POLY -0.2499
-1.6628 KAAT RRANG -0.2289
-1.6628 KAAT RRAWISHTY -0.2009
-1.6628 KAAT SARDAAN -0.2881
-1.6628 KAAT SHWENY -0.2906
-1.6628 KAAT WARBIGRIN -0.2900
-1.0280 KAATE </s> -0.3010
-1.8062 KAATE BAASH -0.2881
-1.8062 KAATE BASAR -0.2906
-1.8062 KAATE BASHA -0.2919
-1.8062 KAATE BIDWEYN -0.2258
-1.8062 KAATE BIXWENYN -0.2258
-1.8062 KAATE DAAR -0.2956
-1.8062 KAATE DAARISTAANA -0.2041
-1.8062 KAATE DWWAM -0.2447
-1.8062 KAATE GARRAAM -0.2937
-1.8062 KAATE GIRT -0.2276
-1.8062 KAATE GWEBIGRA -0.2960
-1.8062 KAATE GWLL -0.2840
-1.8062 KAATE LEDAXWRRET -0.1836
-1.8062 KAATE PSHWWDAA -0.2319
-1.8062 KAATE RRAWISHTEKY -0.1996
-1.8062 KAATE RRWWNAAKY -0.2255
-1.8062 KAATE SAWZ -0.2071
-1.8062 KAATE SHAMMAYA -0.2341
-1.8062 KAATE SHWFER -0.2940
-1.8062 KAATE SWWDA -0.2953
-1.8062 KAATE TWAANY -0.2900
-1.8062 KAATE WAKW -0.2888
-1.5051 KAATE WRYAA -0.2245
-1.8062 KAATE XAAWEN -0.2969
-1.8062 KAATE XOSHDAWE -0.2969
-0.9031 KALWPALY </s> -0.3010
-1.6021 KALWPALY ANDAAMAANY -0.2894
-1.6021 KALWPALY BAAXAKA -0.2808
-1.6021 KALWPALY BAAXCHAKAY -0.2940
-1.6021 KALWPALY BAYAANY -0.2139
-1.6021 KALWPALY BIRAAT -0.2632
-1.6021 KALWPALY DAAYK -0.2980
-1.6021 KALWPALY DAKAWET -0.2888
-1.6021 KALWPALY HAYA -0.2389
-1.6021 KALWPALY MAAMOSTAA -0.2975
-1.6021 KALWPALY RREHHAAN -0.2940
-1.6021 KALWPALY SHAAXY -0.2609
-1.6021 KALWPALY TWND -0.2285
-1.6021 KALWPALY XIZMATY -0.2894
-1.6021 KALWPALY XOY -0.2888
-1.6021 KALWPALY ZYAANYAAN -0.2900
-0.8751 KAS </s> -0.3010
-1.4771 KAS AAZAABYN -0.2894
-1.4771 KAS BAAXCHAKAY -0.2940
-1.4771 KAS BOYAAXCHY -0.2156
-1.4771 KAS CHAPDAA -0.2923
-1.4771 KAS DACHIMA -0.2596
-1.4771 KAS HYCH -0.1891
-1.4771 KAS MAYDAANY -0.2881
-1.4771 KAS NACHIN -0.2926
-1.4771 KAS PARY -0.2915
-1.4771 KAS SAALL -0.2275
-1.4771 KAS SAYRAAN -0.2935
-0.8939 KIRD </s> -0.3010
-1.9731 KIRD BAA -0.2527
-1.9731 KIRD BAASH -0.2881
-1.9731 KIRD BAKAARDENET -0.2576
-1.6721 KIRD BIPIRSIN -0.2688
-1.9731 KIRD BIRAAT -0.2888
-1.9731 KIRD BO -0.2109
-1.9731 KIRD CHY -0.2957
-1.4960 KIRD DAA -0.2730
-1.9731 KIRD DAANAA -0.2906
-1.9731 KIRD DAAR -0.2956
-1.9731 KIRD DAAYK -0.2980
-1.9731 KIRD DAKAN -0.2093
-1.9731 KIRD DAKAWET -0.2888
-1.9731 KIRD DAM -0.2071
-1.9731 KIRD DARCHWWY -0.2126
-1.9731 KIRD DILGYR -0.2906
-1.9731 KIRD GHAARDAAN -0.2619
-1.9731 KIRD HY -0.2881
-1.9731 KIRD MINDAALL -0.2280
-1.9731 KIRD NAABYNAAY -0.1919
-1.6721 KIRD NAAW -0.2285
-1.9731 KIRD NIMWNAY -0.2583
-1.9731 KIRD NIZHYAAR -0.2881
-1.9731 KIRD PANJAA -0.1549
-1.9731 KIRD PSHWWDAA -0.2319
-1.9731 KIRD SAWZ -0.2071
-1.9731 KIRD SHAARAKA -0.2369
-1.9731 KIRD SWPAASY -0.2730
-1.9731 KIRD WAAYA -0.2919
-1.9731 KIRD XAAKEKY -0.2218
-1.9731 KIRD XWSHK -0.2326
-0.7347 KOMPYWTAR </s> -0.3010
-1.5798 KOMPYWTAR ANDAAMAANY -0.2894
-1.2788 KOMPYWTAR BAAXCHAKAY -0.1988
-1.5798 KOMPYWTAR BAYAANY -0.2139
-1.5798 KOMPYWTAR BINARRATY -0.2910
-1.5798 KOMPYWTAR CHAPDAA -0.2923
-1.5798 KOMPYWTAR GASHA -0.2430
-1.5798 KOMPYWTAR HALLA -0.2326
-1.5798 KOMPYWTAR LEBWRDIN -0.2888
-1.5798 KOMPYWTAR MAALLY -0.2197
-1.5798 KOMPYWTAR NIZYK -0.2407
-1.5798 KOMPYWTAR ZHYAAN -0.2923
-0.7404 KWRDISTAAN </s> -0.3010
-1.6435 KWRDISTAAN BIXWENAWA -0.2863
-1.6435 KWRDISTAAN DADAATE -0.2956
-1.6435 KWRDISTAAN DAZHYN -0.2840
-1.6435 KWRDISTAAN DYWAAR -0.2923
-1.6435 KWRDISTAAN GAAZINDAY -0.2906
-1.6435 KWRDISTAAN HYWAAY -0.2923
-1.6435 KWRDISTAAN LEBGRIN -0.2218
-1.6435 KWRDISTAAN NAXOSH -0.2915
-1.6435 KWRDISTAAN RRANG -0.2289
-1.6435 KWRDISTAAN SIPY -0.1691
-1.6435 KWRDISTAAN TANDIRWSTY -0.2083
-1.6435 KWRDISTAAN WALLAAMY -0.2863
-1.6435 KWRDISTAAN WSHA -0.2956
-1.6435 KWRDISTAAN XAAWEN -0.2969
-0.9243 KWRRE </s> -0.3010
-1.6232 KWRRE AAMEREKY -0.2915
-1.6232 KWRRE DIDAAN -0.2852
-1.6232 KWRRE FERDAKAAT -0.2953
-1.6232 KWRRE KA -0.2872
-1.6232 KWRRE KWRSY -0.2923
-1.6232 KWRRE MIN -0.2139
-1.6232 KWRRE NIZHYAAR -0.2467
-1.6232 KWRRE PENJ -0.2923
-1.6232 KWRRE PIRSYAAR -0.2894
-1.3222 KWRRE QARAAGHY -0.2218
-1.6232 KWRRE RRAAST -0.2935
-1.3222 KWRRE SAALL -0.2275
-1.6232 KWRRE SARAWA -0.2894
-1.6232 KWRRE ZWW -0.2888
-0.7959 KWRSY </s> -0.3010
-1.6990 KWRSY BICHYNA -0.1946
-1.6990 KWRSY DAHAATAWA -0.2218
-1.6990 KWRSY DARBAAZY -0.2467
-1.6990 KWRSY DEM -0.2919
-1.6990 KWRSY GWEBIGRA -0.2178
-1.6990 KWRSY GWTY -0.2368
-1.6990 KWRSY MAAMOSTAA -0.2975
-1.6990 KWRSY MINDAALL -0.2280
-1.6990 KWRSY NWEMAAN -0.2148
-1.6990 KWRSY PRR -0.2083
-1.6990 KWRSY PSHWWDAA -0.2968
-1.6990 KWRSY RROZH -0.2298
-1.6990 KWRSY SHAARAKA -0.2968
-1.6990 KWRSY WSHA -0.1973
-1.6990 KWRSY XWAARAWA -0.2906
-1.6990 KWRSY YAARMATY -0.2218
-1.6990 KWRSY ZAWY -0.2881
-0.8325 LA </s> -0.3010
-1.5315 LA BAAXCHAKAY -0.2162
-1.5315 LA CHWNKA -0.2817
-1.5315 LA CHYYA -0.2467
-1.5315 LA DADAATE -0.2956
-1.5315 LA DAYPAAREZIM -0.1829
-1.5315 LA GAAZINDAY -0.2218
-1.5315 LA JWAAN -0.2074
-1.5315 LA MALLBANDY -0.2093
-1.5315 LA SIPY -0.1691
-1.5315 LA XIZMATY -0.2126
-1.5315 LA XWENDIN -0.2331
-1.5315 LA YAASAA -0.2185
-0.7782 LAAY </s> -0.3010
-1.4771 LAAY BIZHY -0.2576
-1.4771 LAAY DACHIMA -0.2910
-1.4771 LAAY DOZYYAWA -0.2825
-1.4771 LAAY GYAA -0.2272
-1.4771 LAAY KWRDISTAAN -0.2139
-1.4771 LAAY PEY -0.2935
-1.4771 LAAY SAALL -0.2982
-1.4771 LAAY SAYRAAN -0.2452
-1.4771 LAAY WSHA -0.2956
-1.4771 LAAY ZHYAAN -0.2833
-1.1461 LAGALL </s> -0.3010
-1.6232 LAGALL BAAYAKY -0.2926
-1.6232 LAGALL BICHYNA -0.2915
-1.6232 LAGALL BILLIND -0.2218
-1.6232 LAGALL BINARRATY -0.2258
-1.6232 LAGALL CHYYA -0.2881
-1.6232 LAGALL DAM -0.2071
-1.6232 LAGALL DWKAAN -0.2966
-1.3222 LAGALL GASHA -0.2926
-1.6232 LAGALL HHAZMAAN -0.2963
-1.6232 LAGALL KWRDISTAAN -0.2139
-1.6232 LAGALL LATAMANY -0.2894
-1.6232 LAGALL MALLBANDY -0.2093
-1.6232 LAGALL NWEMAAN -0.2923
-1.3222 LAGALL RRANG -0.2783
-1.6232 LAGALL RROZH -0.2982
-1.6232 LAGALL SHEWAAZY -0.2944
-0.8016 LATAMANY </s> -0.3010
-1.5798 LATAMANY BAASH -0.2747
-1.5798 LATAMANY BAYAANY -0.2139
-1.5798 LATAMANY DAKAN -0.2958
-1.5798 LATAMANY FERIMAAN -0.2929
-1.5798 LATAMANY GWEBIGRA -0.2960
-1.5798 LATAMANY HAR -0.2872
-1.5798 LATAMANY HAAWRRE -0.2253
-1.5798 LATAMANY JWAAN -0.2921
-1.5798 LATAMANY PIRSYAAR -0.2264
-1.5798 LATAMANY RROZH -0.2953
-1.5798 LATAMANY SARTAASH -0.2218
-1.5798 LATAMANY WSHA -0.1973
-1.5798 LATAMANY ZYRAK -0.2965
-1.0280 LAXOBAAYY </s> -0.3010
-1.5051 LAXOBAAYY AGAR -0.2919
-1.5051 LAXOBAAYY CHAND -0.2923
-1.5051 LAXOBAAYY DAAYK -0.2430
-1.5051 LAXOBAAYY DABIRZHENET -0.2900
-1.5051 LAXOBAAYY DASRAWE -0.2863
-1.5051 LAXOBAAYY GHAARDAAN -0.2935
-1.5051 LAXOBAAYY HASHT -0.2041
-1.5051 LAXOBAAYY LA -0.2881
-1.5051 LAXOBAAYY LAGALL -0.2798
-1.5051 LAXOBAAYY LEDAXWRRET -0.1836
-1.5051 LAXOBAAYY PENWWS -0.2175
-1.5051 LAXOBAAYY RRAAMAAN -0.2923
-1.5051 LAXOBAAYY SHAMMAYA -0.2906
-1.2553 LE BASWWDA -0.2906
-1.2553 LE CHAND -0.2967
-1.2553 LE DARROM -0.2906
-1.2553 LE DAYPAAREZIM -0.2906
-1.2553 LE DWWRA -0.2919
-1.2553 LE KALWPALY -0.2900
-1.2553 LE RRAAMAAN -0.2923
-1.2553 LE SWWDA -0.2953
-1.2553 LE XWENDIN -0.2972
-0.7782 LEBGRIN </s> -0.3010
-1.3802 LEBGRIN BINWWSA -0.2118
-1.3802 LEBGRIN BYNY -0.2403
-1.3802 LEBGRIN CHY -0.2957
-1.3802 LEBGRIN DADAATE -0.2956
-1.3802 LEBGRIN DARROM -0.1691
-1.3802 LEBGRIN GAMA -0.2910
-1.3802 LEBGRIN NAAW -0.2943
-1.3802 LEBGRIN XWENDIN -0.2972
-1.0792 LEBWRDIN </s> -0.3010
-1.5563 LEBWRDIN BIRAAT -0.2888
-1.5563 LEBWRDIN DAAPYRA -0.2093
-1.5563 LEBWRDIN DAAWAAY -0.2304
-1.5563 LEBWRDIN DANORRIM -0.2632
-1.5563 LEBWRDIN GAMA -0.1891
-1.5563 LEBWRDIN GASHA -0.2968
-1.5563 LEBWRDIN HAYA -0.2863
-1.5563 LEBWRDIN HYWAAY -0.2253
-1.5563 LEBWRDIN NAAN -0.2418
-1.5563 LEBWRDIN PEXOSHA -0.2900
-1.5563 LEBWRDIN PEY -0.2935
-1.5563 LEBWRDIN POLY -0.2929
-1.5563 LEBWRDIN RRAAYALLY -0.2808
-1.5563 LEBWRDIN SARTAASH -0.2888
-1.5563 LEBWRDIN WAAYA -0.2919
-0.6255 LEDAXWRRET </s> -0.3010
-1.5798 LEDAXWRRET BAA -0.2527
-1.5798 LEDAXWRRET DABIRZHENET -0.2430
-1.5798 LEDAXWRRET DARAWA -0.2910
-1.5798 LEDAXWRRET DIDAAN -0.2341
-1.5798 LEDAXWRRET FERIMAAN -0.2021
-1.5798 LEDAXWRRET KIRD -0.2869
-1.5798 LEDAXWRRET RRANG -0.2966
-1.5798 LEDAXWRRET XWENDIN -0.2331
-1.5798 LEDAXWRRET ZARD -0.2872
-1.5798 LEDAXWRRET ZYRAK -0.2965
-0.7404 LEMAAN </s> -0.3010
-1.8195 LEMAAN BASHA -0.1761
-1.8195 LEMAAN BICHYNA -0.2915
-1.8195 LEMAAN CHAAWIM -0.2888
-1.8195 LEMAAN DARROM -0.1691
-1.8195 LEMAAN DAYPAAREZIM -0.1829
-1.8195 LEMAAN DILL -0.2863
-1.8195 LEMAAN GASHA -0.2883
-1.8195 LEMAAN GHAARDAAN -0.2858
-1.8195 LEMAAN GWLL -0.2285
-1.8195 LEMAAN HAAWRRE -0.2967
-1.8195 LEMAAN HHAZMAAN -0.2963
-1.8195 LEMAAN HYCH -0.2910
-1.8195 LEMAAN KAS -0.2863
-1.8195 LEMAAN NAAW -0.2324
-1.8195 LEMAAN NAMAAM -0.2264
-1.8195 LEMAAN NIMWNAY -0.2872
-1.8195 LEMAAN PIRSYAAR -0.2894
-1.8195 LEMAAN RRWWNAAKY -0.2255
-1.8195 LEMAAN SWWDA -0.2953
-1.5185 LEMAAN XWENDIN -0.2287
-0.7677 MAALLY </s> -0.3010
-1.9138 MAALLY AAMEREKY -0.2915
-1.9138 MAALLY BAAXAKA -0.2910
-1.9138 MAALLY BIRAAT -0.2888
-1.9138 MAALLY BWW -0.2948
-1.9138 MAALLY DAKAWET -0.1919
-1.9138 MAALLY DASHOM -0.2553
-1.9138 MAALLY DYWAAR -0.2553
-1.9138 MAALLY GAYAANDIBWW -0.2906
-1.9138 MAALLY HABWW -0.2272
-1.9138 MAALLY HALLDASTIM -0.1845
-1.9138 MAALLY HAAWRRE -0.2967
-1.9138 MAALLY JWAAN -0.2966
-1.9138 MAALLY KAANY -0.2888
-1.9138 MAALLY KIRD -0.2964
-1.9138 MAALLY LAAY -0.2863
-1.9138 MAALLY NAXOSH -0.2293
-1.9138 MAALLY PAAYTAXTY -0.2808
-1.9138 MAALLY PENWWS -0.2175
-1.9138 MAALLY PIRSYAAR -0.2264
-1.9138 MAALLY RROZH -0.2298
-1.9138 MAALLY SAAM -0.2926
-1.9138 MAALLY SHAARAKA -0.2968
-1.9138 MAALLY SHWFER -0.2940
-1.6128 MAALLY TAMAASHAAM -0.2553
-1.9138 MAALLY WENAKAAN -0.2881
-1.9138 MAALLY XWENDIN -0.2331
-0.8559 MAAMOSTAA </s> -0.3010
-2.0864 MAAMOSTAA AMAANAY -0.2181
-2.0864 MAAMOSTAA AMRRO -0.2935
-2.0864 MAAMOSTAA ANDAAMAANY -0.2527
-2.0864 MAAMOSTAA BIKAYN -0.2341
-2.0864 MAAMOSTAA BINARRATY -0.2910
-2.0864 MAAMOSTAA BIXWENYN -0.2910
-2.0864 MAAMOSTAA DAAHAATWWYN -0.1938
-2.0864 MAAMOSTAA DAAR -0.2492
-2.0864 MAAMOSTAA DOZYYAWA -0.2430
-2.0864 MAAMOSTAA DYWAAR -0.2923
-2.0864 MAAMOSTAA FERDAKAAT -0.2894
-2.0864 MAAMOSTAA HALLA -0.2919
-2.0864 MAAMOSTAA HARDWW -0.2906
-2.0864 MAAMOSTAA HAAWRRE -0.2923
-2.0864 MAAMOSTAA KAANY -0.2071
-2.0864 MAAMOSTAA KAATE -0.2583
-2.0864 MAAMOSTAA KOMPYWTAR -0.2775
-2.0864 MAAMOSTAA KWRSY -0.2923
-2.0864 MAAMOSTAA MAALLY -0.2957
-2.0864 MAAMOSTAA MAQAST -0.2093
-2.0864 MAAMOSTAA NAAW -0.2977
-2.0864 MAAMOSTAA NABWW -0.2926
